,0,1,2,3,4,5,6,7,8,9,10,11,12,13,14,15,16,17,18,19,20,21,22,23,24,25,26,27,28,29,30,31,32,33,34,35,36,37,38,39,40,41,42,43,44,45,46,47,48,49,50,51,52,53,54,55,56,57,58,59,60,61,62,63,64,65,66,67,68,69,70,71,72,73,74,75,76,77,78,79,80,81,82,83,84,85,86,87,88,89,90,91,92,93,94,95,96,97,98,99,100,101,102,103,104,105,106,107,108,109,110,111,112,113,114,115,116,117,118,119,120,121,122,123,124,125,126,127,128,129,130,131,132,133,134,135,136,137,138,139,140,141,142,143,144,145,146,147,148,149,150,151,152,153,154,155,156,157,158,159,160,161,162,163,164,165,166,167,168,169,170,171,172,173,174,175,176,177,178,179,180,181,182,183,184,185,186,187,188,189,190,191,192,193,194,195,196,197,198,199,200,201,202,203,204,205,206,207,208,209,210,211,212,213,214,215,216,217,218,219,220,221,222,223,224,225,226,227,228,229,230,231,232,233,234,235,236,237,238,239,240,241,242,243,244,245,246,247,248,249,250,251,252,253,254,255,256,257,258,259,260,261,262,263,264,265,266,267,268,269,270,271,272,273,274,275,276,277,278,279,280,281,282,283,284,285,286,287,288,289,290,291,292,293,294,295,296,297,298,299,300,301,302,303,304,305,306,307,308,309,310,311,312,313,314,315,316,317,318,319,320,321,322,323,324,325,326,327,328,329,330,331,332,333,334,335,336,337,338,339,340,341,342,343,344,345,346,347,348,349,350,351,352,353,354,355,356,357,358,359,360,361,362,363,364,365,366,367,368,369,370,371,372,373,374,375,376,377,378,379,380,381,382,383,384,385,386,387,388,389,390,391,392,393,394,395,396,397,398,399,400,401,402,403,404,405,406,407,408,409,410,411,412,413,414,415,416,417,418,419,420,421,422,423,424,425,426,427,428,429,430,431,432,433,434,435,436,437,438,439,440,441,442,443,444,445,446,447,448,449,450,451,452,453,454,455,456,457,458,459,460,461,462,463,464,465,466,467,468,469,470,471,472,473,474,475,476,477,478,479,480,481,482,483,484,485,486,487,488,489,490,491,492,493,494,495,496,497,498,499,500,501,502,503,504,505,506,507,508,509,510,511,512,513,514,515,516,517,518,519,520,521,522,523,524,525,526,527,528,529,530,531,532,533,534,535,536,537,538,539,540,541,542,543,544,545,546,547,548,549,550,551,552,553,554,555,556,557,558,559,560,561,562,563,564,565,566,567,568,569,570,571,572,573,574,575,576,577,578,579,580,581,582,583,584,585,586,587,588,589,590,591,592,593,594,595,596,597,598,599,600,601,602,603,604,605,606,607,608,609,610,611,612,613,614,615,616,617,618,619,620,621,622,623,624,625,626,627,628,629,630,631,632,633,634,635,636,637,638,639,640,641,642,643,644,645,646,647,648,649,650,651,652,653,654,655,656,657,658,659,660,661,662,663,664,665,666,667,668,669,670,671,672,673,674,675,676,677,678,679,680,681,682,683,684,685,686,687,688,689,690,691,692,693,694,695,696,697,698,699,700,701,702,703,704,705,706,707,708,709,710,711,712,713,714,715,716,717,718,719,720,721,722,723,724,725,726,727,728,729,730,731,732,733,734,735,736,737,738,739,740,741,742,743,744,745,746,747,748,749,750,751,752,753,754,755,756,757,758,759,760,761,762,763,764,765,766,767,768,769,770,771,772,773,774,775,776,777,778,779,780,781,782,783,784,785,786,787,788,789,790,791,792,793,794,795,796,797,798,799,800,801,802,803,804,805,806,807,808,809,810,811,812,813,814,815,816,817,818,819,820,821,822,823,824,825,826,827,828,829,830,831,832,833,834,835,836,837,838,839,840,841,842,843,844,845,846,847,848,849,850,851,852,853,854,855,856,857,858,859,860,861,862,863,864,865,866,867,868,869,870,871,872,873,874,875,876,877,878,879,880,881,882,883,884,885,886,887,888,889,890,891,892,893,894,895,896,897,898,899,900,901,902,903,904,905,906,907,908,909,910,911,912,913,914,915,916,917,918,919,920,921,922,923,924,925,926,927,928,929,930,931,932,933,934,935,936,937,938,939,940,941,942,943,944,945,946,947,948,949,950,951,952,953,954,955,956,957,958,959,960,961,962,963,964,965,966,967,968,969,970,971,972,973,974,975,976,977,978,979,980,981,982,983,984,985,986,987,988,989,990,991,992,993,994,995,996,997,998,999,1000,1001,1002,1003,1004,1005,1006,1007,1008,1009,1010,1011,1012,1013,1014,1015,1016,1017,1018,1019,1020,1021,1022,1023
GCF_000007305,0.054188307,0.018391475,0.02834547,-0.040302806,-0.022806438,0.021759976,-0.055577397,-0.10036111,0.03433022,0.014163935,0.02866656,-0.0011204947,0.020122373,0.07652444,0.017529937,0.009469027,0.0061242036,0.019496486,0.019635864,0.005472677,-0.057196364,-0.00466333,0.06854144,-0.013646407,0.014082974,0.048389755,0.01379173,-0.015253693,-0.027069569,-0.002054401,-0.0026626862,-0.022316875,-0.11374129,0.009292311,-0.105652675,-0.015445674,-0.024274169,0.014663795,0.014794907,-0.0046201246,0.011945259,-0.09353361,-0.00056521595,0.009360291,-0.021272538,0.05492598,-0.0021824818,0.0058255577,-0.018706387,0.012026265,-0.022807017,-0.038538925,0.0025850367,-0.035502825,0.0046419296,0.002178155,0.02513989,0.031628072,-0.048990168,-0.008813893,0.026917357,0.02253224,-0.03933767,-0.021871556,-0.040451873,0.039312948,0.060262933,-0.04117341,0.014952472,-0.06031006,-0.034019783,0.016607707,-0.18185669,0.0015594158,-0.010743448,0.016753603,-0.0018380284,-0.052215606,-0.036858976,0.04821335,-0.0345338,-0.017249322,-0.037665512,0.006304448,-0.036075994,-0.060770843,-0.027617007,0.013006924,0.028138857,0.03653875,0.0042188624,-0.010862527,0.01288937,-0.004698608,-0.024570243,-0.027306836,-0.012913505,0.051098518,-0.02800893,-0.0008286447,0.021957412,0.035403542,0.035873465,-0.032232873,0.033950396,0.028132755,0.0025963937,-0.0033684762,0.016208299,-0.03000085,0.04527574,-0.037555754,-0.035474747,-0.019664822,0.047368057,-0.022513023,0.0057787215,-0.012280656,0.08598886,-0.017620824,0.002682012,-0.028202843,0.016704984,-0.04826965,0.008050667,0.018759688,0.00082955975,0.030715998,0.06793091,0.014290817,0.025628861,0.019729787,-0.035928078,-0.026056519,-0.033479337,-0.062680855,-0.032548174,-0.016933478,0.00877825,0.013736,0.015134976,-0.07537469,-0.014505627,0.009897073,0.007015778,-0.00046237465,-0.044427432,-0.0013230313,-0.0026533033,0.0016419291,-0.0001818221,-0.007875486,-0.033435322,0.026577218,0.008143524,0.006349258,-0.029101348,-0.01591836,-0.061297223,-0.0061920704,0.013775002,-0.053473726,-0.014902492,-0.024607405,-0.048850484,0.042421654,0.0014762864,0.042733602,-0.0033446401,0.02550643,0.020671327,-0.015775334,0.0040521994,0.048044965,0.0017453865,0.04888583,0.048055686,-0.015874363,-0.020624507,-0.040420152,0.006381736,0.0050967056,0.012889428,-0.017216107,0.03188067,-0.04135814,0.04142996,0.05826333,-0.12254155,0.034062736,0.0740928,-0.033648238,-0.014138713,0.040790036,0.034780353,0.04058735,-0.017426684,0.035825573,-0.041172035,-0.014204542,-0.0067437827,0.035143156,-0.060727645,-0.013525693,-0.01188217,-0.038622923,0.10793921,-0.0373101,0.017568111,0.027418286,0.02354367,-0.019143816,0.02536535,0.043007553,-0.002106959,0.010870257,0.0232269,-0.05042322,-0.028748658,0.009067465,-0.023418522,-0.033245727,0.022532662,0.06782761,-0.0065880483,0.004608281,0.058740553,0.007056008,0.039288208,-0.05545477,0.03142003,-0.043734033,-0.020158798,-0.027191915,0.014341387,-0.018578112,-0.024553668,0.0022205552,-0.022729354,0.0011842679,0.0052115815,-0.010700758,0.03265556,0.046348773,-0.034388162,0.015594079,-0.03174034,0.00091413636,0.025846563,-0.0024184063,-0.056230634,0.05568652,0.004234153,0.031746533,0.04295746,0.009119189,0.032620907,0.056908548,-0.024253272,-0.015776709,-0.022414843,-0.018226167,-0.040261533,-0.002598402,0.0024647377,-0.056619182,0.0064600147,-0.007451895,-0.008895023,-0.013579629,-0.051693045,0.05698694,-0.011053519,-0.10230228,-0.0031657182,-0.036254287,0.0013716558,-0.0003640661,0.03285849,-0.110803716,-0.023880431,-0.06544464,-0.052199766,-0.028192997,-0.030555818,0.043955483,-0.042836428,-0.013452763,0.0028134761,0.058742642,-0.0028296497,0.045020685,0.005514959,-0.032704618,0.2393407,0.043034934,0.012271313,-0.045899875,0.034980953,-0.003149529,0.0062433444,0.006892188,0.017063877,-0.002793773,0.004189605,0.0045786537,-0.0052929297,-0.038825072,-0.013028588,0.045277856,-0.016808344,0.001986402,0.039240055,0.03429264,0.010502599,-0.026665792,0.00090419827,0.053657316,-0.10360491,-0.007820479,0.0036655767,-0.034097835,0.007282374,-0.00017024664,0.036100827,-0.03238495,-0.07649837,0.020981273,0.012873135,-0.04968871,-0.040939294,0.009784345,-0.014463067,-0.007400031,-0.07507652,0.035047583,-0.0031717548,0.01690617,-0.042379856,0.016786544,-0.03117525,0.01795607,0.013791455,0.0011671168,0.03199164,-0.0017067008,0.0057865335,-0.037848495,-0.0076076942,-0.017239882,-0.02367188,0.08904647,-0.023002751,0.021177877,0.015719326,-0.032596424,0.0013302024,0.036761414,0.003480759,0.0060713817,0.0061292686,0.0017627794,-0.0033778823,-0.05689345,-0.02421438,-0.08970464,-0.06366584,-0.017955955,0.01164396,-0.065322116,-0.0062048966,-0.0037839722,0.01212185,0.007815583,-0.004824841,-0.024092,0.00858558,0.0077851224,-0.005043935,-0.032052338,0.0019109808,0.049520202,-0.059505567,0.044942018,-0.026733216,-0.03911402,-0.055844758,-0.0037514428,0.04853243,-0.02542175,0.024356924,-0.037607603,-0.017599383,-0.027178004,0.006268777,0.055181667,-0.0025308654,-0.011944437,-0.011585736,-0.0034188328,-0.0074444814,0.02279045,0.11846689,0.07857282,-0.024905477,-0.09360389,0.022499576,0.04681338,0.010586419,-0.032900978,-0.0033831536,-0.04757115,-0.012722066,0.006221235,-0.03747267,0.011274157,-0.016082894,0.0063509513,-0.007876391,0.047928713,0.0035317456,0.013392076,0.016726062,-0.03185655,0.058959924,0.02929414,-0.011025069,0.032567058,0.005131513,0.0581145,-0.11831669,-0.025904227,0.0036884695,-0.069954604,-0.0003919145,-0.06973307,0.112634234,0.14174838,-0.031654194,0.027079985,-0.023736607,0.041357532,-0.0046177637,0.11017069,0.056379944,-0.07769636,0.00382962,-0.015293699,-0.007725557,0.026450982,-0.0024832592,0.03085652,-0.004109497,-0.0020993093,-0.008910154,-0.016987564,-0.026105369,-0.002157824,0.005158737,0.045265388,-0.013762966,0.07871652,0.07773934,0.029476099,0.04890795,-0.0038663514,0.02260575,-0.00733619,-0.017725829,-0.0140817985,-0.010602491,0.004287441,0.032408148,-0.028206851,-0.046211902,0.002475909,0.025779549,0.008057949,0.06587696,-0.08579493,0.03205303,-0.0046090423,0.00781513,-0.019279627,-0.006424984,-0.047420777,0.01043799,-0.036731493,0.022667535,-0.015816087,-0.03812839,0.04785057,-0.038347974,-0.02759074,-0.010071941,-0.0007297434,-0.036325034,0.014456858,-0.013063949,0.02142743,-0.018638488,-0.024676763,-0.027193466,-0.040582817,-0.084286384,-0.010317068,-0.001970807,0.009441135,0.03654607,0.03404021,0.0029200986,-0.00096460665,-0.026259907,-0.04153221,-0.019041091,0.045028314,-0.0034034536,-0.00074133347,0.042362466,-0.00013425946,-0.046093673,0.032917745,-0.00774254,-0.026689293,-0.022823092,-0.02439363,-0.0018403511,-0.036857776,-1.4653197e-05,-0.018939482,0.0646774,0.019114893,-0.013553711,-0.020648882,-0.010491573,0.03194794,0.016438821,-0.017691642,-0.009280895,0.028021678,0.01675279,0.02880353,-0.017093403,0.029837463,-0.040448975,-0.008050974,0.01158617,-0.02287113,-0.026885474,0.0024138298,-0.01679368,-0.00815371,0.012430856,-0.023569584,0.005994448,-0.030871175,-0.0636915,0.01292126,-0.023904737,-0.018550685,-0.09695499,-0.002699017,0.012147584,-0.020499285,0.06335536,-0.03147623,-0.06403306,-0.02003815,-0.018677983,0.102726564,-0.017277976,0.004645653,0.050058123,-0.040329486,-0.013066356,0.026274815,-0.03414569,-0.04635474,-0.018599119,-0.05377117,0.001361758,0.025004724,-0.027682407,-0.038976,0.012946418,0.022873173,-0.013871494,-0.0036010654,-0.016754314,-0.015690908,-0.013208536,-0.023493564,0.023210606,-0.04484569,-0.020660425,0.039351337,0.0015831925,-0.03989687,0.024455613,-0.010835474,0.037999272,0.04949077,-0.035189584,0.042166278,0.017786851,-0.029705081,0.022068925,-0.030480318,-0.05730103,0.03558788,0.023207191,0.003247363,0.019186255,-0.03845992,-0.01321935,0.12442091,0.0016188286,0.015990822,0.029198933,-0.08429392,-0.0022783263,0.006523547,0.049400233,-0.021194536,0.050975904,0.02012326,0.015621969,0.022124093,0.009429997,-0.055590935,-0.0062643588,-0.040467445,-0.009324454,-0.016449625,0.07591696,-0.047967322,0.0097032795,-0.05028071,0.05474028,-0.0067346366,0.030267838,0.0139637,0.04857287,0.05922434,-0.037522867,-0.023300957,0.030398998,-0.017684696,-0.046810158,0.016143149,-0.044896938,0.030899579,-0.029777085,0.06476999,-0.021641694,-0.06537971,0.019664716,0.010325157,-0.0091696605,0.0011995872,0.0054241796,0.029676896,0.00038183155,0.021229977,-0.012192823,-0.015103429,-0.039583806,-0.015879337,0.004829338,-0.037094872,-0.010509905,-0.036895998,0.032086898,0.02355772,0.037763227,-0.0034207883,-0.04347176,-0.053192023,0.0027338064,-0.021382125,-0.0072964625,-0.023599096,0.0047748354,0.09712133,0.030163424,0.018608728,0.0053734137,-0.026935263,0.042069256,-0.016032357,-0.01621986,-0.021343749,0.017880173,0.025145732,0.022337519,0.013042651,-0.01931956,0.018021058,-0.034504652,-0.048578355,0.054385163,0.013180246,-0.05366378,-0.013261277,-0.06562612,-0.024612216,-0.0003422238,0.037931565,0.05057419,0.06479286,-0.009859743,-0.025300723,0.0019018685,0.02535525,0.029090296,-0.020220265,-0.007975939,-0.028733645,-0.00041411072,0.016668888,-0.021359526,0.03412542,0.023169447,-0.0071200808,-0.037651487,0.022334058,-0.0124655645,-0.019653007,-0.02242839,-0.050730888,-0.031238506,-0.019278243,-0.029580627,-0.08574657,0.012303345,0.026519228,0.03500881,-0.02996175,0.029405482,0.058653127,-0.0021425616,-0.031296495,0.07205473,-0.010546935,-0.009211841,-0.073948674,-0.025053434,-0.03489781,-0.011875194,0.04178466,-0.011162711,0.044571903,-0.045369588,-0.094182104,-0.02353384,0.023841579,-0.025937535,0.011431228,0.02129675,-0.019882794,0.0019471194,0.06408662,0.031845327,0.032969978,-0.012122664,-0.051695734,-0.027906539,-0.031762615,0.0047930707,-0.076862216,-0.004143681,0.031844515,-0.027663734,-0.055822868,-0.03031759,-0.00999702,-0.0067941006,-0.02530653,-0.010150184,-0.035471857,0.021291973,-0.020677332,0.050650857,0.020935338,0.029705096,-0.027192878,-0.014119733,-0.05521991,0.04648028,0.028152287,-0.012452999,0.004198087,0.030462254,0.103510246,0.03960929,0.00450306,6.0796272e-05,-0.0010885252,-0.021014286,-0.030211156,0.0021718894,-0.06475003,0.11486995,-0.0058374256,0.0080370065,-0.0006611133,-0.0033999016,-0.011986241,0.03465625,0.008858057,-0.009237068,-0.0011119638,0.046382442,0.073354915,0.109039485,0.00026160898,-0.02616032,-0.11957094,0.026002362,-0.018879158,0.009949423,0.03392033,0.03714792,-0.013448042,0.024364863,-0.04721897,0.03441257,0.020516861,0.03827109,0.027466558,-0.036322176,0.019970682,0.018581832,-0.02339249,-0.04138332,-0.0475597,0.049792767,0.13265023,0.015013743,0.018478315,0.007320716,-0.05121747,-0.0521053,0.016559774,-0.00905265,-0.061624065,-0.039866704,-0.061261423,-0.0010855682,0.005961907,0.026759129,0.013886424,-0.037550688,-0.038688663,-0.0029519144,-0.00095640856,-0.0029373944,0.008864997,-0.018106971,-0.032416746,-0.011519272,0.006753509,-0.027946036,0.01531538,-0.02165487,-0.015173871,-0.027371794,-0.013128303,0.00888694,0.06167237,0.04676796,-0.030736767,-0.037732337,0.025917161,-0.032067172,-0.03313478,0.024903286,-0.034298558,-0.07646027,-0.05149342,0.010829148,-0.020220509,-0.07095469,0.0114192115,-0.0012626857,0.025658663,0.038998324,-0.016798941,-0.021958914,-0.006301197,0.010172071,-0.0028222091,0.013080381,0.0077847373,-0.051437683,-0.0019725445,-0.019419096,0.017175179,0.09519318,-0.04559959,-0.051534243,0.051118784,-0.073874466,-0.02882991,-0.039921485,0.0059261164,-0.027945634,-0.020850476,0.019996472,-0.008833073,-0.062045064,0.014500268,-0.0057596555,0.16786812,-0.050070267,-0.009319248,-0.038858198,-0.023625828,-0.028111901,-0.014738424,0.040314812,-0.0008694576,0.0017142023,-0.020492932,-0.0031028632,0.013507007,0.020118238,0.0249746,0.026014373,-0.02822813,0.04182595,0.059259612,-0.01586899,-0.016705338,-0.0059640547,0.016319165,-0.035307385,0.030368023,0.04415591,0.02862089,0.013120131,-0.0068711424,-0.033781104,-0.014689446,0.029459164,-0.036840193,-0.029226601,-0.1207148,-0.051931947,0.020660605,-0.0007610775,-0.0018275593,-0.0122723635,-0.059109397,-0.020453723,0.01847992,-0.020566363,-0.050445322,0.0125214625,-0.00033163,-0.009515452,0.041058198,-0.013912467,0.06078659,0.01033894,-0.048014887,-0.12714563,0.016992439,-0.009791909,0.029773442,0.040416427,-0.00033708662,-0.001763741,0.010687281,-0.043896765,0.04880563,-0.027792228,0.020446444,-0.054396823,0.030677497,0.028219795,-0.01751304,0.07809255,-0.031940818,0.05437255,-0.04054313,-0.013916444,0.019835442,-0.007601252,0.04022353,-0.020137224,-0.014444958,0.039756995,0.022637589,-0.02237142,-0.040408265,-0.019962057,-0.040954262,-0.037273727,-0.0133299455,0.014966749,-0.00335012,0.03280223,-0.044544816,0.10050161,0.060009655,-0.0072252196,-0.003883544,0.002961291,-0.005919565,-0.059716795,-0.054394916,0.018096194,0.030885305,-0.052453168,0.023413336,0.013326682,-0.071918815,0.04627403,0.03480816,-0.010044642,0.02639316,0.038578022,0.018622065
GCF_000019685,0.031277537,0.012904643,0.011498164,-0.007898933,-0.014639045,0.11376132,-0.032826144,-0.062032733,-0.008339941,-0.04545563,-0.036198493,0.08659434,-0.009799594,0.060159646,0.021307638,0.05497944,0.036162727,-0.0014973044,0.0030663689,-0.0664486,0.03710494,-0.019620502,-0.006652731,0.0073298025,-0.035722,0.050031014,-0.100203186,-0.06449344,0.08245572,0.020231832,0.027824009,0.0056358594,-0.111065164,-0.02411155,-0.109479085,0.05343159,-0.064082354,0.037093233,-0.027441027,0.020788437,-0.025567379,0.008639426,-0.055777736,-0.014061583,0.0014677576,-0.0041531413,-0.0676035,0.037046604,-0.018251428,0.011830788,-0.036647633,0.06318441,-0.001477457,-0.038588874,0.012302636,-0.019554365,0.014908595,0.020716492,-0.053735487,0.008730526,-0.0015992702,0.03902139,-0.0434404,0.08336654,0.015428766,0.060179178,0.0017775253,0.000521708,0.045753103,-0.070627086,-0.018864986,0.009655561,-0.19580059,0.051083993,-0.017028727,-0.0473877,-0.025853924,0.014545757,0.014291961,0.06730464,-0.009454605,0.00019924276,0.012669097,0.02431618,0.03069615,-0.0055476753,-0.008006192,0.008570809,-0.0454243,0.04822,-0.022842567,0.00013443753,-0.0709573,-0.026684444,-0.063172765,-0.09093594,-0.021008125,0.02044249,0.044096503,-0.014983446,-0.04570069,0.03558353,0.014846384,-0.042532228,0.014625162,0.03015511,0.02226421,-0.054540277,0.00653821,0.014884747,0.007411027,-0.03144247,7.574194e-05,-0.02645653,-0.030927522,0.01940267,-0.016068526,-0.0477422,0.072062925,-0.07404293,0.024130711,-0.0014557169,0.04963559,-0.037674427,-0.0943714,0.0341875,-0.032587428,-0.047448773,-0.0037028284,0.038242728,0.020988654,0.01598639,-0.0015712929,-0.009132526,-0.029596366,0.01180183,-0.015078847,-0.05005572,0.0008380692,-0.015346988,0.03954666,-0.062220715,0.05026696,0.029776812,-0.025518177,-0.027414136,-0.015084037,0.0057517244,-0.12888901,0.09351883,0.010054615,-0.015446961,-0.0032180378,-4.0115392e-05,0.009851213,-0.02625775,0.00066779985,-0.020651754,-0.0021814501,-0.010373715,0.013864312,-0.034587715,-0.068855934,-0.033625845,-0.013915973,-0.028953895,0.03849701,0.043507073,0.033831388,0.0076044863,-0.008837961,0.019717624,0.0013537795,0.03007532,0.030106267,0.041010253,0.005401463,-0.047937185,0.0687284,0.060661484,-0.021714395,-0.0030005383,-0.006412568,0.0070955576,0.01621453,-0.044415817,0.038166724,0.0005298929,-0.046775553,0.053000417,0.052529972,-0.039403427,0.027421704,0.06354339,-0.024358481,0.0063951896,-0.04482203,-0.013684166,0.019390043,-0.029960806,-0.05885668,0.00545037,0.016138922,0.039172072,0.0014083517,0.022402335,0.094651416,0.042169064,0.033741005,0.015192677,0.09600583,-0.046580132,-0.013030652,0.057293423,0.06653655,-0.016463414,-0.06515633,-0.0030488619,-0.0051317136,0.021810306,-0.009216796,-0.014759394,-0.02538441,-0.0008338085,0.046375055,0.024517661,-0.034679897,0.006257101,0.04521994,-0.02918077,-0.0068661403,-0.0456215,-0.052212033,0.011550887,-0.03426686,0.06322873,-0.02592022,0.008950567,-0.011490873,0.0147874225,0.027361955,-0.032784186,0.024130039,-0.023137439,-0.012123459,0.010041693,0.015989212,-0.026072666,0.087449595,-0.04088248,0.025735473,-0.041468296,-0.022109732,0.05424942,-0.025437932,0.07123099,0.0424108,0.016451309,-0.007062515,-0.011017264,0.085540764,0.005908859,0.034544986,0.003982629,-0.018368656,-0.013781355,-0.040044945,0.036515456,-0.017700296,-0.05217041,0.051439032,0.101766236,-0.042356633,-0.10357574,0.028076766,-0.059727624,-0.048447996,-0.009869239,-0.023340661,-0.056508318,-0.042246893,-0.040360034,-0.0827337,0.004935803,-0.07036399,0.011275881,-0.0021208294,0.0071901153,-0.0069638332,0.043190707,0.0076976586,0.042441797,-0.07681994,-0.0911018,0.20220162,0.033608876,0.01606178,-0.03294369,-0.009861227,0.009219936,0.0012915562,-0.0206823,-0.016986648,-0.055635225,-0.058218677,-0.018804105,0.02125408,-0.015210774,-0.04514538,0.061357215,0.021402353,0.022404363,0.0019064102,0.058756687,0.015557941,-0.056556277,-0.05355442,-0.028839517,-0.12816544,0.051744197,0.009027438,-0.08958804,0.0068891947,0.044060368,0.06981808,-0.037009507,-0.055515245,0.029720955,0.014475159,0.004341069,-0.04944463,-0.056777924,0.038326144,-0.0074575017,-0.037033968,0.10434469,-0.050347824,0.0040807114,-0.07328101,-0.008643834,-0.06444659,0.02533712,0.0069231414,0.022507677,-0.0034645896,0.03843251,-0.031696733,-0.022275722,-0.024314458,-0.028170813,-0.05255735,0.051521484,0.041329246,0.042256095,0.06062923,-0.035952866,-0.028990269,0.039690394,-0.0054931645,-0.011887151,0.0762704,0.027258266,0.027182067,-0.010812738,0.010275523,-0.012084682,-0.090621084,0.020162754,0.031061118,-0.047421254,-0.03242372,-0.0022962869,0.0036171135,-0.028188117,-0.0040895436,0.007456003,0.032296732,0.0022590512,0.0020667475,-0.004829247,-0.057644684,-0.003144159,-0.057580244,0.03089551,0.030384012,-0.04334823,-0.014486092,0.0036162413,-0.050255366,0.0828174,0.010559276,-0.12590162,0.00696155,-0.14598991,0.041512292,0.018776037,-0.039341312,0.010905911,-0.049623307,-0.018585758,0.030003093,-0.00021348298,0.08772711,-0.005696619,-0.097891256,-0.099705644,-0.0062278765,0.013510074,-0.069688484,-0.08193079,0.040931992,-0.017746292,-0.08423007,0.009104265,-0.047986045,0.07493933,-0.018426465,-0.023294313,-0.09436222,0.05487862,0.020694448,-0.014950417,-0.059171405,0.014658211,0.027215078,0.025462542,-0.05214213,-0.035875216,0.014050357,-0.010617622,-0.047794923,0.05963198,-0.05874285,0.034937467,-0.037738997,-0.0051360824,0.08726528,0.14213763,0.005631667,0.07226585,0.03319095,-0.004719232,0.015798958,0.12787786,0.07467391,-0.059766985,-0.027607689,-0.03454656,-0.0007700491,-0.004723437,0.018038064,-0.0216767,-0.04084197,-0.011528433,0.05055798,-0.00433569,0.072885,-0.068950154,-0.07877785,-0.0043928223,-0.03561401,-0.021799898,0.07417417,0.016064255,-0.02142947,-0.049401145,0.06984698,-0.026380848,-0.061407182,-0.011831774,0.06378515,0.0040613655,0.0014683768,0.021176644,-0.028752489,0.040306758,-0.0074817864,0.004440742,0.022334944,-0.00305737,-0.011714388,0.030954072,0.0325271,0.008238268,0.04052414,-0.1549845,0.041611165,0.053021125,-0.031173052,0.049498796,-0.016585682,0.0323632,0.042944297,0.029835649,0.017314063,-0.015718175,-0.03455503,0.04539856,-0.036129013,-0.02850097,-0.06361723,-0.070049904,0.01758714,-0.12765887,-0.08854546,-0.04107927,0.038759444,-0.067275465,0.035732683,0.041069504,0.045295797,0.030167792,-0.0072429953,-0.010220666,0.0045846915,0.026013978,0.029122816,-0.0054389946,0.014248881,-0.04222188,0.0044477466,0.09299219,0.026561273,-0.028351216,-0.028589856,-0.059742138,-0.008629268,0.003423756,0.0018559376,-0.02943316,0.01620953,0.033050615,-0.07643086,0.022154555,-0.04202094,-0.072643235,0.030649269,0.07548874,0.01947056,0.05740841,0.032869652,0.06477543,0.036110047,0.022847109,0.047796868,-0.029027587,0.04402371,-0.0010247086,-0.002684111,0.0006682309,-0.102575645,-0.010388492,0.054680664,0.0007740917,0.018208558,-0.038213793,-0.08847261,-0.03907054,0.08432999,-0.007933746,-0.14386837,-0.024392469,0.057190236,0.02272436,0.028272886,-0.027072003,0.023307232,-0.0075984425,0.046008173,0.030344935,0.037905265,-0.026357852,-0.022119984,0.023350423,0.01908373,-0.032943174,-0.049934532,-0.007950045,-0.11451255,0.022783153,-0.011378255,-0.0002337101,0.0045983233,-0.09336712,0.022394635,0.027018063,0.022917014,-0.087298915,-0.004244348,0.0076292963,-0.028280385,-0.012005567,0.06626567,-0.03441664,0.04624533,0.03183819,-0.026054144,0.0014298531,0.055392984,-0.017491937,-0.014692281,-0.025686454,-0.044393178,0.049271606,-0.023486484,-0.010334621,-0.008124201,0.008420644,-0.07264664,-0.002990443,-5.962226e-06,0.026259314,-0.016266195,0.010871905,0.02991612,0.13221858,-0.03400103,0.062759794,-0.007380752,-0.053743973,-0.018667528,0.047464307,-0.03118142,-0.027178468,0.047405392,-0.009957507,0.022777433,-0.03189803,-0.014760863,-0.03402411,0.0032680286,-0.016803093,0.04213199,0.038829945,0.039691024,-0.12298894,0.025516097,-0.0034819024,-0.024868678,0.010039255,-0.03494499,-0.021135107,0.020845171,0.012183875,-0.0030626638,0.029920006,-0.02940626,0.016961323,-0.07587786,0.04131998,-0.0182449,-0.015663119,0.057187818,0.07524765,-0.007963676,-0.05247152,0.06410518,0.0445678,-0.013578312,0.03802405,-0.024307312,0.07574272,-0.026197014,0.042446353,0.12737578,0.06700821,-0.025099829,-0.0009965474,-0.035107326,-0.0320605,0.022435352,-0.02526343,0.026595628,0.03479441,-0.008515964,-0.04358845,-0.057204377,0.04722084,-0.0031630907,0.018304033,0.019740367,-0.06481663,-0.023572236,0.1111346,0.017463595,-0.011838457,0.0012021881,0.01583111,0.033293247,-0.021072203,-0.08798063,0.029855903,0.031129282,-0.007370817,-0.0136983935,0.060225576,-0.0061176983,0.004058819,-0.027089624,0.02192351,0.012822811,0.06784752,-0.030973203,0.0287536,-0.058638003,-0.011362153,-0.019324683,0.004516447,0.068795994,0.023860315,-0.008190021,-0.03797305,-0.017742878,0.027999723,-0.034789257,-0.01654795,0.023943614,-0.04438878,0.06766906,0.010571887,-0.028377987,-0.022438994,0.0037771985,0.040597823,-0.010622246,-0.018147679,-0.013492006,-0.031219954,-0.07027255,-0.019313343,-0.07690784,-0.11432353,0.0076450896,-0.06365672,-0.005773767,0.012436821,-0.0124765495,-0.04469698,-0.0053042513,0.05041738,-0.0584371,-0.056251902,0.0016312177,0.07291213,0.12107551,-0.028489942,0.07083349,-0.101776026,-0.020342754,0.01864642,-0.07787457,0.08222459,0.00753776,-0.07366808,0.03280652,0.027182223,0.05724171,0.021969847,0.05060774,0.010024268,0.013904649,-0.040994193,0.028502064,0.05407556,0.029126728,0.0062586386,-0.07603138,-0.013025373,0.04158754,0.011243883,-0.004096173,-0.052295994,-0.023589786,-0.003072098,0.01843407,0.06309877,-0.04976328,0.012833891,-0.047250144,-0.023362515,0.019295834,0.04855908,0.06142078,-0.062108513,0.034219895,0.026264114,-0.0044042654,-0.04803571,0.008737048,0.054342993,-0.01179537,0.023918297,-0.02927005,0.040529944,0.026273046,0.013242231,-0.0062396573,0.07138326,-0.024480483,0.028459748,-0.031125424,-0.0777938,-0.0041580163,0.022624383,-0.005802022,-0.021103662,-0.023063969,-0.000656407,-0.020296097,0.02210233,0.019788638,-0.0044877166,-0.015861617,0.038679246,0.114544764,-0.04350342,-0.0022259399,-0.13298127,0.05789074,-0.002527867,-0.009927322,0.01869909,0.030993115,-0.0116305845,0.07179085,0.010081493,0.07733922,0.01272547,-0.02879969,-0.029260278,0.009493661,0.03782346,0.067408845,0.01032945,-0.024436304,-0.04180856,0.03790751,0.13519104,0.00010254054,-0.024978234,-0.023967482,-0.07000924,0.01354953,-0.034719683,-0.051041193,-0.011894886,-0.015442268,-0.03389152,0.03873381,0.069502145,-0.02131067,-0.016177515,0.044608478,0.0089581385,-0.019714834,-0.02579791,5.956941e-05,0.018716283,0.020921946,-0.01939208,-0.030096993,0.018060884,-0.030573262,0.0076683904,-0.019240415,-0.038933612,-0.039210085,0.033880197,-0.033501443,0.044869807,-0.041238524,-0.000324436,0.0023659102,0.061210435,-0.045654017,-0.018641384,0.0046375995,-0.0062031467,0.0027376534,0.024475465,-0.015194074,-0.012009559,-0.011019402,-0.013471949,0.045848053,-0.0034497993,-0.0722411,-0.003994105,-0.009330748,-0.017167985,-0.014298157,0.014389876,0.017450793,-0.0034999594,-0.06830918,0.05755619,0.04450755,0.05956578,0.10083141,-0.008981418,-0.08189667,0.020087736,-0.100719735,0.020044077,-0.010789608,0.014691226,-0.029414073,0.016681153,0.017949866,-0.049450178,-0.0023987286,-0.059689272,0.031524196,0.10940091,0.01966832,-0.04630109,-0.0818336,-0.06521151,-0.0033258423,-0.007246389,-0.10186377,-0.026189344,0.031035906,0.008945541,0.014291064,0.003999331,0.013622164,-0.07292094,-0.028534118,0.014797417,-0.009259891,0.0547537,-0.02279853,-0.03314556,-0.03263648,-0.024521176,0.036984444,-0.042045794,0.0075093415,0.02308223,-0.01538879,-0.03934026,0.04578781,-0.017964438,0.037097774,0.034241386,-0.054724637,-0.12765278,-0.01291719,0.010982549,0.0114883855,0.021437123,0.011198379,-0.07627748,0.03795421,0.022675073,0.07945943,0.023681495,-0.009195634,-0.013680009,0.032476034,-0.042469814,0.02350264,0.026212927,0.010855782,-0.07415649,-0.06545691,0.05015122,-0.040374417,0.054640878,0.012149401,-0.009693062,-0.029838048,0.00906598,0.007071992,0.16387041,0.026822818,0.032464202,-0.02641249,0.013688546,-0.020993866,0.035297662,-0.002673834,-0.03387496,-0.025450608,-0.004418636,0.03203986,0.052083876,0.0018050964,-0.011497789,0.06968106,-0.021654058,0.069653906,0.013717026,-0.007123052,-0.037500072,-0.04505431,-0.03607916,0.014941821,0.014356303,0.085628666,-0.018906116,-0.028904092,0.061102636,0.10720035,-0.0076218317,0.0717956,-0.02959074,-0.011787117,-0.03643062,-0.07783159,-0.1169925,0.04779942,0.00543909,-0.0908023,-0.022989057,-0.0034280163,-0.11099536,0.037172794,-0.016305538,-0.014186236,-0.09511934,0.05189811,0.0682647
GCF_000183725,0.03165958,0.0065658013,-0.010026823,0.013068576,-0.0023873078,0.042734258,-0.02563171,-0.0622623,0.006608376,-0.02240498,-0.0124057215,0.04418922,0.0011850297,0.063887805,0.0028763756,0.024472928,0.008810704,0.012566443,0.0065876693,0.005213105,-0.023970392,0.002816701,0.02525589,0.03163061,-0.024996696,0.011419124,-0.03878649,-0.022920026,0.022273505,0.015819445,-0.0024882492,0.03422432,-0.11872208,0.018562602,-0.112713926,0.014998461,-0.013313899,0.0085560195,-0.009919449,-0.0072790696,0.010118691,-0.0112636965,-0.019904738,-0.007248235,-0.0034214652,0.016451064,-0.02731527,-0.00945497,-0.018851062,0.014095059,-0.022798492,0.0038415755,-0.036723427,-0.0064699054,0.03496475,0.005855081,-0.004329478,-0.023630464,-0.034086213,-0.009238904,-0.015510702,0.022383865,-0.026414922,0.020141276,-0.0065312437,0.040945478,0.03521593,-0.021569451,0.005257568,-0.015722932,-0.025502162,-0.014174997,-0.1490356,0.016953979,-0.014369038,-0.0031008956,0.011634841,0.003674078,-0.0036119442,0.029133873,-0.005964309,0.0048274063,0.0032238625,0.005783509,-0.026772052,-0.023872374,-0.007933045,0.0028615778,-0.017116992,0.010841395,-0.008454202,0.006959687,0.00025864437,0.0031602692,-0.038639057,-0.033705737,-0.006996629,0.013195657,-0.010368801,-0.0154192345,-0.03662733,0.020297911,0.0061589763,-0.035903983,0.030075016,0.028137742,0.034742724,0.00045602358,-0.004394156,-0.046904173,0.01874727,-0.020029146,-0.024711257,0.016345289,0.008490156,0.03145603,0.0013250124,-0.014930808,0.044142116,-0.03550761,-0.0024536173,-0.018503334,0.0077392245,-0.02992315,-0.01591711,-0.0018728749,-0.019851748,0.00091363303,0.023316516,0.0043619704,0.017827397,0.00545546,0.01236479,-0.012352469,-0.020634288,-0.00047867844,-0.00015566811,-0.012365528,-0.009394561,0.007455427,0.01291815,-0.052095253,4.7103502e-05,0.0075801867,-0.007125961,0.0047551775,-0.015920836,-0.002677664,-0.022368623,0.032688037,0.01760167,-0.00041976135,-0.012200355,-0.0015607548,0.0155477235,-0.0030045533,0.0064175394,-3.0591553e-05,-0.010861109,-0.0018013724,0.0044860626,-0.023666304,-0.03278157,-0.035301518,-0.032883484,0.023649389,0.013472155,0.020268785,0.012346385,0.014443852,0.004116508,-0.0098465895,0.019987212,0.051286597,0.0067315814,0.0059131337,-0.017043306,-0.013908774,0.019101564,-0.00082696177,0.017214086,-0.019262975,-0.014197422,-0.010625547,0.00796507,-0.02198675,0.008935021,0.010028155,-0.0558809,0.037574787,0.032453932,-0.0042060395,-0.0037067663,0.042286333,0.005063141,0.020129908,-0.016086299,0.0098847365,0.008413648,-0.030371264,-0.022066917,-0.0014278503,-0.021471847,0.010769977,-0.013806023,0.010697692,0.037187662,0.01799201,0.008233403,0.0022187564,0.011836306,-0.032703202,0.0042190948,0.007681655,0.0142915305,0.008571265,0.002529266,-0.0321508,-0.018865498,-0.0061077834,-0.0033705444,0.004216774,0.011087752,0.018753838,0.035450835,0.010536193,-0.02101228,0.016148146,0.018680675,-0.016270367,-0.002891554,-0.020686524,-0.0089512905,-0.0026492046,-0.0015511194,-0.021802958,-0.029096818,-0.005706612,-0.021323087,-0.0028979643,0.03204887,-0.021320153,0.017351214,-0.0021136007,-0.030603135,0.022827867,-0.007033519,0.0027407738,0.045373473,-0.029950287,-0.0007642102,0.011988936,-0.0013046854,0.011928111,0.007117335,0.013972679,0.049541093,0.004674987,0.006506757,-0.014830269,0.011365699,-0.017140752,-0.012074083,-0.017933486,-0.014487526,0.0033038273,-0.031377256,0.004897488,-0.007830258,-0.02693212,-0.0015109295,0.011305652,-0.0031380914,-0.11049645,-0.007804913,-0.027287211,0.0066426815,-0.0021754338,-0.0050019706,-0.07926174,-0.008455488,-0.029467536,-0.05079358,-0.017568659,-0.008406403,0.02570743,-0.010957522,0.013698785,0.0113831265,0.029169409,0.020899845,0.03614059,-0.01689427,-0.035914183,0.21504529,0.023471568,0.013956302,-0.019318955,0.00037775948,0.0072227675,0.005545016,0.010601318,0.0017955892,-0.03486302,-0.018796714,0.0138852075,0.016647676,-0.0032373467,-0.00042284332,0.017383916,-0.0106584085,0.008849723,-0.009087155,0.021879945,0.008941124,-0.011363106,0.005475637,0.008480237,-0.04393552,0.002867998,-0.0003552075,-0.014989776,-0.0060968883,0.014491378,0.019287964,-0.02882354,-0.023063224,0.01696215,0.005961535,-0.009291447,-0.022701215,-0.008963078,-0.0013795552,0.0028047091,-0.033741444,0.028879298,-0.026297936,0.010982939,-0.026640555,-0.0019985721,-0.016448332,0.0031193,-0.006911527,0.031381976,0.01186268,0.017504329,-0.010146399,0.006856428,0.011214291,-0.010250543,-0.014618597,0.025646662,0.024100702,0.025187613,0.042472564,-0.014578998,-0.03297372,0.036075074,0.021058967,0.009510106,0.016950218,-0.008684896,-0.013629888,-0.019462796,-0.026044186,-0.024431383,-0.06504722,0.031527255,0.030263167,-0.027488666,-0.025247738,-0.0027961582,0.0058117844,-0.020680504,-0.011959175,0.002363903,0.02237907,0.022344898,-0.00761766,0.0040405164,-0.02744759,0.007454458,-0.015536721,-0.012856047,-0.007141019,-0.017842429,-0.0049305386,0.013647058,-0.0029230085,-0.012414895,0.0022576598,-0.039913606,-0.019530265,-0.03714761,0.016685067,0.047853746,-0.005716396,-0.0049498593,-0.0026696227,0.014066579,-0.005229075,0.008274994,0.061838217,0.009365307,-0.06508086,-0.09536837,0.0131443385,0.032656852,-0.014239107,-0.06666299,0.00019809401,-0.010302365,-0.026255416,-0.0060304846,-0.05654389,0.0066806762,0.002310874,-0.011626972,-0.02935269,0.016809093,0.010202318,0.013772324,0.010151085,-0.012615554,0.027349046,0.01390298,-0.0044190562,0.008110899,-0.012628305,-0.00013915503,-0.054540843,0.017419755,-0.010764407,-0.030797398,-0.012673287,-0.031165766,0.0433364,0.13056488,-0.02898039,0.0004414421,-0.0069959317,0.00789984,-0.0030948434,0.12415861,0.020136846,-0.035517834,0.0033362934,0.0012021469,-0.020348713,0.008802834,0.019901123,-0.0029765074,-0.0071034436,-0.00794975,0.0022525545,-0.028706001,0.0069561866,-0.038948935,0.0041842954,0.02265741,-0.018304408,-0.02011904,0.048416644,0.036009636,-0.01526435,-0.030770501,0.038725514,0.007319212,0.003960042,-0.011437981,0.01969201,0.007927357,0.02376045,0.017283441,-0.026252285,-0.00071143376,-0.003985551,0.021454457,0.017991176,-0.019464778,-0.023969438,0.0006786828,0.014109903,-0.011718691,0.008589598,-0.04420394,0.015053326,-0.0048583434,-0.015873136,0.014746571,-0.019533906,0.029129367,0.013008988,-0.00080841914,0.024432983,-0.010097085,-0.0030122523,0.032119397,-0.016685592,-0.0025722107,-0.033141453,-0.039148875,-0.010477469,-0.07229809,-0.076818846,-0.005968313,0.015561596,-0.021825178,0.032612003,0.014522142,0.023797112,0.0026151927,-0.007916664,-0.011810577,0.006480694,0.006748921,0.018827742,0.021015516,0.015381299,5.548953e-05,-0.017153258,0.04868252,-0.021780554,-0.033278313,-0.016606344,-0.056902494,0.013836111,0.004464013,0.011272081,0.0026292098,0.025327763,-0.014343272,-0.0061876895,0.014603509,-0.009507486,-0.034084298,0.007836211,0.02369149,0.025877852,0.046899877,-0.008035129,0.041128,-0.0052034333,0.014026201,-0.0060103503,-0.019212425,0.010039382,-0.020618718,-0.0020271372,-0.0048927357,-0.04915687,-0.015673082,0.01560009,-0.0021020065,-0.013073535,-0.028705034,-0.05332655,-0.008306478,0.02277317,0.011151694,-0.05635361,-0.010247896,0.032581832,-0.010635413,0.0009415313,0.0072155525,0.0046352283,-0.003980781,0.027795967,0.043100204,0.028663334,-0.0048905225,-0.012663578,-0.0012038817,0.027068036,-0.012502079,-0.01736233,-0.036323044,-0.022228112,0.0005203259,0.013042462,-0.0070005725,0.002731696,-0.0595214,0.0020231367,0.034773123,-0.00770945,-0.02874327,-0.003993066,-0.03362801,-0.010026248,-0.035905212,0.045334883,-0.015841495,0.019395504,0.0028118691,-0.010583573,0.006373014,0.012835814,-0.016010188,-0.0032919496,0.008851496,-0.010419996,0.020032546,-0.018523404,-0.0029520174,0.007529754,0.010924248,-0.030784665,0.013676011,0.0009540631,0.021350931,-0.0011109433,-0.007860689,0.025255566,0.13451186,-0.018746942,0.009600358,0.00745926,-0.032137286,-0.026613636,0.012308122,0.00072657847,-0.025742829,0.019105744,-0.022938808,0.00136625,0.010813904,-0.012737249,-0.020049157,0.0144597655,-0.011609995,0.011427207,0.005490464,0.022726985,-0.032414775,0.027125856,-0.00916694,0.0022099193,0.009989296,-0.008416609,-0.0072253384,0.037506264,0.0050426694,-0.017922422,0.010114908,-0.03389017,0.0043819225,-0.03413961,-0.00026684828,0.007012649,0.0014529584,0.0001244231,0.0429519,-0.011708163,-0.047317635,0.04544084,0.036948465,-0.0023346893,-0.00097272446,-0.015710479,-0.009097107,-0.0070267688,-0.01308387,0.042923562,-0.0005269268,-0.010559601,-0.028947175,-0.0074386364,0.012155102,0.010891518,-0.010486798,0.032366846,-0.0009470487,0.005530345,-0.032422874,-0.011156094,0.029727016,-0.008784989,-0.019288793,0.013222655,-0.009129858,-0.014528534,0.09346061,0.017410431,-0.008664476,-0.0008598627,0.01854097,0.00711137,-0.0039470796,-0.005683799,0.012642032,-0.0046139364,0.0071490104,-0.001336498,0.0119790565,0.0048509124,0.016536595,-0.031487446,0.008610851,0.018247534,0.02873778,0.0006552131,0.022237597,0.0036374608,-0.013825424,-0.027292797,0.022838797,0.048846684,0.016730092,-0.023842573,-0.03577722,-0.01560761,0.010114349,0.00065916165,0.022021282,0.020607997,-0.019419746,0.007764135,-0.009183784,-0.030235674,-0.009441162,-0.014033331,0.037849236,-0.011284321,-0.009644464,0.0042695655,-0.011525118,-0.02281746,-0.0063615516,-0.031815592,-0.03479984,-0.014158614,-0.045757435,-0.007271276,-0.010258354,0.0012550948,-0.032003287,-0.0053916737,0.041436408,-0.009995352,-0.017284546,0.023954108,0.026564898,0.030916946,-0.025462195,-0.0073358947,-0.052667923,-0.011133156,-0.011110082,-0.0029585273,0.03693945,-0.02249639,-0.03682982,0.025666153,0.009537407,0.030316468,-0.0015298083,0.035469864,0.00080325495,0.016174689,-0.023755504,0.0233365,0.017421558,0.0151433945,-0.002154007,-0.010032082,-0.02228062,-0.008439748,0.0010670245,-0.013296753,-0.0037359532,0.009934077,-0.005484461,0.009475444,0.013093765,-0.022750169,0.02772859,-0.020446349,-0.019426482,0.011851346,0.005094077,0.030848801,-0.014487258,0.024606118,-0.006785097,-0.02007048,-0.006423336,-0.0030497,0.025082048,0.014321537,-0.013766499,-0.028789127,0.03210439,0.028125655,0.011572373,-0.0007646078,0.011767687,0.008271882,-0.01630379,0.0018178391,-0.019011822,0.0014470028,0.030658305,-0.009561007,-0.016200623,-0.024186615,0.03298551,0.020984052,0.013091278,0.018620495,-0.0017860559,0.018413445,0.027948497,0.115683,-0.0074565685,-0.003182284,-0.09145672,0.033760983,-0.016931877,-0.008968697,0.011113316,0.02760038,-0.0038839907,0.016634041,0.0140638575,0.02917182,0.0018651802,0.011463269,0.004326862,-0.010807238,0.004844911,0.024422774,-0.008555027,0.0014811909,-0.042233344,0.028397193,0.10614454,-0.009839917,-0.015332729,-0.011995204,-0.0466403,0.010475094,0.010926147,-0.029563438,-0.008796978,-0.001073793,-0.01640035,0.0012524998,0.014238609,0.0031472596,-0.05048323,0.028299823,-0.0012402002,0.013171012,0.0075503727,0.0065155476,0.0043106824,0.0106306495,-0.004063497,-0.022035602,0.01454605,-0.009857713,-0.012573126,-0.00908346,-0.027469244,-0.0038503068,0.02341476,-2.4485535e-05,0.02833888,0.017896445,0.012298999,-0.0046536764,0.030992627,-0.0006885337,-0.039028652,0.01869388,-0.010159374,-0.03249611,-0.020640016,-0.015928326,-0.02696691,-0.025114404,0.020120561,0.0075803855,-0.008268314,0.005148024,-0.00028542522,0.0142238205,0.0016609598,0.009671668,0.0050415276,0.021936914,-0.020971958,-0.018642737,0.026949784,-0.009400344,0.007134344,0.10459217,0.014903486,-0.032638717,0.038454365,-0.060920637,-0.024109187,-0.025115896,-0.015862623,-0.007957349,0.016670953,0.013323435,-0.016957236,-0.029373627,-0.040876456,-0.011337045,0.12940918,-0.00477695,0.013000349,-0.064176984,-0.023831587,0.024033431,0.020664671,0.008886402,0.005051732,-0.029005056,0.009612503,0.015186216,0.0007902381,0.019691693,-0.035965256,-0.0010319279,-0.00013727004,-0.0045059808,0.011824048,-0.019926963,-0.012625481,-0.008244059,-0.0006147435,-0.011261421,-0.024663297,0.034076404,0.025544543,0.0016107272,0.0036217892,0.01797172,-0.017294677,0.020730538,-0.011430653,-0.01992959,-0.11396493,-0.015911728,0.021189662,0.008460371,0.010153211,-0.0012639939,-0.06717954,0.03424867,0.005600937,0.028539464,0.028871892,-0.013593643,-0.006411862,0.013393172,0.002501838,0.005781721,0.004092428,0.021383002,-0.0324328,-0.06828834,0.018684074,-0.0045966096,0.01653683,0.044001225,0.006037731,0.009513118,-0.0029180069,-0.013139933,0.08114373,-0.00071349303,-0.0025449966,-0.020314176,-0.01185268,-0.008675164,0.040824592,0.029436525,-0.016183529,0.024010349,0.009577677,-0.018316908,0.0133216875,-0.0012361818,-0.005314059,0.025561463,0.0032900614,0.033422682,0.0044818935,0.014607645,-0.02971158,-0.016459879,-0.03920504,-0.014981611,0.010324643,0.046561826,0.009583859,-0.008081362,0.007790689,0.111689046,0.026192605,0.023897436,0.019915367,-0.011242809,0.0029496946,-0.044916715,-0.046278827,0.019667493,0.008287921,-0.041987356,-0.010823044,0.015606581,-0.09427505,0.033454362,0.023197843,-0.008803179,-0.012526537,0.041186552,0.024866894
GCF_000019705,0.035309907,0.011582044,0.013126011,-0.006869585,-0.012139165,0.1119457,-0.031176388,-0.05908454,-0.006355979,-0.04566247,-0.03585054,0.087715276,-0.008759984,0.0620585,0.023707991,0.059561074,0.037527777,0.0022263825,0.0044569313,-0.06480774,0.035509385,-0.021207634,-0.005422062,0.00603123,-0.034609787,0.049342874,-0.09684218,-0.064518414,0.0818112,0.017424317,0.028904801,0.0034777604,-0.111276194,-0.022664672,-0.10958262,0.052955475,-0.067588285,0.03671261,-0.02502094,0.015491643,-0.026635982,0.0058621233,-0.05486257,-0.015442607,0.005515097,-0.0041172043,-0.06593758,0.03782023,-0.019469295,0.011752159,-0.036984272,0.06538887,0.00019799665,-0.03852805,0.011877557,-0.021032413,0.014419614,0.023011398,-0.05431499,0.008331896,-0.0025044298,0.036926236,-0.04054684,0.08188109,0.015286011,0.060135167,0.00020261343,-0.00013061285,0.04441962,-0.071490996,-0.017932627,0.007156085,-0.19740218,0.05273832,-0.016492747,-0.045519974,-0.02628457,0.015090674,0.015562278,0.06546996,-0.010752968,-0.0018643745,0.01051344,0.024113366,0.031181056,-0.008425864,-0.006185959,0.009133609,-0.04468711,0.048755795,-0.024995517,-0.0023442688,-0.06922866,-0.027145876,-0.063601166,-0.09175457,-0.018522933,0.019586567,0.044588096,-0.013136644,-0.044128332,0.03709156,0.016279578,-0.042704206,0.018173927,0.029285502,0.020546203,-0.054023877,0.009316908,0.012289565,0.008187401,-0.030492952,-0.0028183477,-0.027463105,-0.032688748,0.020547168,-0.014315458,-0.05001705,0.069099106,-0.07429997,0.025412492,-0.0027368257,0.052414812,-0.039672464,-0.09421918,0.035400182,-0.030705925,-0.047242794,-0.0008296931,0.040657315,0.020795403,0.014621282,-0.0013015681,-0.014544301,-0.029073168,0.010585355,-0.0142349135,-0.045598242,0.0040559056,-0.008386455,0.038758438,-0.06455913,0.049096618,0.029728288,-0.023432085,-0.0270604,-0.014579701,0.006364418,-0.12862046,0.09699185,0.010725994,-0.013069096,-0.0033764264,-0.002863891,0.010703285,-0.026325615,0.00036345562,-0.019051433,-0.0020618415,-0.01321247,0.016691275,-0.036608055,-0.06514522,-0.03563687,-0.016412385,-0.026762916,0.041398138,0.04292911,0.03281302,0.011051557,-0.008915588,0.020856604,0.0012028053,0.03049428,0.029531699,0.04149461,0.0060338657,-0.049957003,0.06969232,0.059627913,-0.021062935,0.0007805152,-0.0021256015,0.0077723744,0.014358443,-0.04447556,0.03890795,0.0014700379,-0.048792467,0.05307973,0.052041862,-0.039336067,0.028989073,0.062903576,-0.025949882,0.006677099,-0.046665434,-0.015334661,0.020226596,-0.03185945,-0.0630878,0.006023108,0.01526184,0.036284436,0.0016129977,0.021404374,0.097052,0.040458173,0.032360982,0.01756144,0.09695746,-0.04529685,-0.010373512,0.0563886,0.06738549,-0.018435987,-0.065595455,-0.004028291,-0.009737943,0.025463684,-0.010393984,-0.015136293,-0.026952509,-0.003913958,0.042519208,0.024147617,-0.031226115,0.0078075305,0.047639105,-0.032758016,-0.0061225314,-0.04723071,-0.05032311,0.01261316,-0.037488837,0.0645773,-0.026238639,0.0066331606,-0.01201469,0.015618007,0.025739195,-0.035740588,0.026057309,-0.022799024,-0.01318181,0.012075917,0.015032458,-0.025070865,0.087017216,-0.03829404,0.026812151,-0.038098056,-0.020674178,0.054225996,-0.023148565,0.06689451,0.04365398,0.019454245,-0.009113736,-0.01015145,0.08469315,0.0045927498,0.034532677,0.0048490833,-0.019311016,-0.016418254,-0.035977732,0.035679627,-0.015918557,-0.053073335,0.049927197,0.10189211,-0.041859437,-0.10347276,0.02508908,-0.0590198,-0.04593679,-0.013927478,-0.02383366,-0.056835882,-0.043437943,-0.038263544,-0.08185138,0.0057338644,-0.06923386,0.011685728,-0.002101987,0.007480759,-0.00971685,0.04418957,0.0075762146,0.04324032,-0.07573612,-0.08943289,0.20197558,0.032599397,0.01653954,-0.0325962,-0.0074199536,0.0089925565,-0.00020365145,-0.020784458,-0.015633082,-0.053940374,-0.06120875,-0.014905144,0.018519834,-0.014603071,-0.04815592,0.05928976,0.019961217,0.021888915,0.004977084,0.05818177,0.016950672,-0.05733043,-0.052049942,-0.028489256,-0.131032,0.050645065,0.009108378,-0.09323199,0.0072691673,0.043786183,0.06830792,-0.039199755,-0.054596648,0.030475808,0.013255718,0.0033695656,-0.049460307,-0.05506627,0.037314396,-0.0065957694,-0.038092773,0.10323104,-0.051716622,0.0036201547,-0.07356276,-0.010284024,-0.06380875,0.024342686,0.004963038,0.02181008,-0.0074680285,0.03909007,-0.029751193,-0.02279391,-0.021927465,-0.027317042,-0.049964163,0.051931307,0.039597332,0.045083836,0.06437407,-0.03806202,-0.03063495,0.040438455,-0.00515724,-0.012236491,0.074199766,0.028127076,0.030888682,-0.013276008,0.011147239,-0.011592038,-0.09225516,0.019971577,0.030048618,-0.048044663,-0.031195119,-0.0031975957,0.0046644756,-0.027264811,-0.002285419,0.00521769,0.033726152,0.0015123796,0.0047851554,-0.0055856183,-0.058414314,0.0010378725,-0.05789456,0.030509798,0.02951201,-0.044381198,-0.01396917,-0.00032405637,-0.05003956,0.078914754,0.011618628,-0.12355614,0.0085548675,-0.14715534,0.038423147,0.018437902,-0.03922055,0.008934344,-0.049855303,-0.018786494,0.029706176,0.00020791091,0.09021691,-0.0036023674,-0.097615086,-0.09960041,-0.00482997,0.014655954,-0.069079585,-0.08117775,0.04114932,-0.015696382,-0.08172837,0.010082421,-0.04755287,0.07335985,-0.020452926,-0.024571978,-0.09086757,0.055888537,0.02251472,-0.016952366,-0.0581806,0.015097699,0.028075678,0.02619406,-0.050421033,-0.03277971,0.01276269,-0.007889321,-0.048091196,0.058720622,-0.058274094,0.0367876,-0.037528668,-0.0057456,0.08665834,0.14168459,0.008412932,0.074441224,0.032830976,-0.002119385,0.016951237,0.12763587,0.0796202,-0.058781795,-0.028575294,-0.03654298,-0.0014162128,-0.0030291174,0.018283185,-0.023108862,-0.042375192,-0.006946317,0.04947647,-0.0023018238,0.071738146,-0.0654818,-0.07784711,-0.003432833,-0.03691542,-0.021060273,0.07629432,0.015620786,-0.014935081,-0.051359847,0.07007999,-0.025184954,-0.06061124,-0.013109951,0.05987265,0.0011566554,0.0016211946,0.02040069,-0.029316794,0.042849034,-0.0036115218,0.0032628463,0.023453373,-0.005298817,-0.008919624,0.0328893,0.030759625,0.005479163,0.03795783,-0.15378308,0.039937645,0.053897057,-0.032497287,0.049889654,-0.017804915,0.030374736,0.041471735,0.02758503,0.019756142,-0.016630173,-0.035059318,0.047383755,-0.03418493,-0.03009908,-0.063806094,-0.068406984,0.01897281,-0.12801027,-0.08810759,-0.039626416,0.038202807,-0.06575102,0.03580493,0.04294398,0.044779126,0.031208064,-0.0051372983,-0.009739356,0.0023849937,0.028383188,0.030375509,-0.0050038593,0.015208373,-0.0418831,0.004037132,0.09257905,0.02673486,-0.028301707,-0.028702335,-0.06167058,-0.008640879,0.0028719024,0.0043058563,-0.02505621,0.014391296,0.033923212,-0.07476139,0.021460244,-0.040517814,-0.07480092,0.028901568,0.07730865,0.021820942,0.060147375,0.033897154,0.066890046,0.03229802,0.023496872,0.044674892,-0.028198346,0.043861236,-0.00080735225,-0.0061945086,-0.001144523,-0.10286634,-0.0085600605,0.05490129,-0.00017594117,0.018075086,-0.038847003,-0.09038378,-0.035812877,0.08068949,-0.009893084,-0.14657249,-0.023353195,0.055889882,0.02426159,0.033649508,-0.028689718,0.01997921,-0.0060209734,0.045072686,0.032240517,0.039639704,-0.023377521,-0.022247098,0.0222164,0.019792285,-0.031172032,-0.052936617,-0.0074766926,-0.114463106,0.01964291,-0.011814702,0.004447268,0.0042558755,-0.09380446,0.022807669,0.02549115,0.022831127,-0.08594494,-0.0043972107,0.0074129314,-0.029261429,-0.013744267,0.065818176,-0.034542117,0.042961873,0.03334558,-0.023792073,1.376603e-05,0.057584178,-0.016255777,-0.014650004,-0.02547748,-0.045837805,0.048407786,-0.026309246,-0.011410572,-0.006067767,0.0091896085,-0.07460117,-0.00094842265,0.0016380184,0.02545158,-0.01786253,0.011040819,0.027150609,0.13223985,-0.033938378,0.061459966,-0.004622026,-0.05467162,-0.014978211,0.04539637,-0.03179989,-0.025530562,0.049761392,-0.009655158,0.0228023,-0.030400189,-0.01247845,-0.034876093,0.0019945328,-0.018796107,0.04283492,0.038591765,0.04129234,-0.12233499,0.025680825,-0.007176643,-0.022694265,0.0075054355,-0.032862976,-0.020662649,0.022470113,0.016559405,-0.0029087125,0.029282695,-0.027769065,0.016935797,-0.07629798,0.042357694,-0.021490987,-0.012799601,0.055389512,0.0766606,-0.006970746,-0.058502357,0.064466484,0.047243852,-0.013627944,0.03762588,-0.024330562,0.07981465,-0.023526412,0.04103924,0.12983099,0.0663514,-0.024205603,-0.00012446154,-0.03636027,-0.03502948,0.02163094,-0.027081067,0.026200749,0.036015343,-0.0066318996,-0.041955914,-0.055990838,0.040694155,-0.0037218232,0.01689308,0.021985414,-0.06384969,-0.023904856,0.11066318,0.018972954,-0.011775799,-0.00044823985,0.015065371,0.033250123,-0.020235447,-0.08654945,0.02914834,0.029949052,-0.0073982137,-0.013426903,0.060414806,-0.004968801,0.0014295871,-0.027061652,0.021124026,0.013789573,0.06767756,-0.032340437,0.028278787,-0.05963123,-0.011971762,-0.017500395,0.0048909825,0.07290503,0.025795678,-0.0044804662,-0.037877683,-0.015993081,0.026767552,-0.03304665,-0.019722853,0.02361002,-0.043179616,0.063782185,0.012265081,-0.02990158,-0.02168074,0.007481121,0.039890815,-0.012993958,-0.017091872,-0.013790307,-0.030082317,-0.066796586,-0.020297555,-0.076007485,-0.11394959,0.007406338,-0.066797115,-0.004687975,0.0109056095,-0.008732952,-0.045668118,-0.0045937416,0.050328154,-0.057503086,-0.057304583,0.0025127614,0.07221536,0.12087236,-0.029253839,0.06956186,-0.10393281,-0.019567896,0.019749802,-0.07757463,0.08345464,0.0074702976,-0.07280869,0.03174921,0.027541129,0.053711284,0.021790912,0.052660387,0.0073776864,0.01231817,-0.038214378,0.029933725,0.053228207,0.02915721,0.0072877957,-0.07740225,-0.0148773985,0.041347034,0.010032301,-0.003462284,-0.047691185,-0.02573752,-0.0007962658,0.018567162,0.06243224,-0.048584707,0.012098348,-0.044784762,-0.02278644,0.01672113,0.050040584,0.06223379,-0.060667936,0.036533322,0.027554998,-0.006312821,-0.052040737,0.00811792,0.054912053,-0.012751986,0.026581163,-0.027294789,0.040538136,0.025853427,0.012739887,-0.009810713,0.06902162,-0.026013412,0.028688736,-0.030177904,-0.08041425,-0.0022338498,0.021426545,-0.009241549,-0.023273608,-0.021509226,0.00028328266,-0.017497167,0.025257211,0.017823087,-0.0051594162,-0.013141018,0.036876164,0.11436481,-0.040768854,-0.0018955272,-0.13388401,0.05812395,-0.00410709,-0.012284064,0.017275035,0.032515004,-0.009650811,0.07276744,0.012633672,0.078471705,0.010600931,-0.027271485,-0.029504579,0.0070250104,0.03905891,0.0667561,0.011170455,-0.027219936,-0.041347727,0.036670864,0.13359812,0.0005908764,-0.021941602,-0.02465691,-0.0707825,0.014160908,-0.03410908,-0.048952643,-0.01252347,-0.0137953665,-0.034905735,0.04193184,0.066872016,-0.018197035,-0.016912341,0.04182911,0.008905757,-0.019714125,-0.024980592,0.0015494374,0.018403647,0.018113721,-0.022510648,-0.032311834,0.017772963,-0.03068961,0.008157504,-0.02381115,-0.03619249,-0.040541064,0.033835065,-0.034176465,0.043573633,-0.03948931,-0.00090153934,0.000747964,0.05917414,-0.04830893,-0.018068444,0.00523273,-0.006988393,0.00095228694,0.023168374,-0.014251692,-0.013361497,-0.010872519,-0.013091796,0.047566626,-0.0021670158,-0.07157431,-0.0028857058,-0.008955159,-0.017175429,-0.01280301,0.013030225,0.016501984,-0.00243917,-0.0711742,0.05584217,0.04473636,0.059162937,0.10078197,-0.010791893,-0.08158457,0.020915242,-0.09810269,0.019793835,-0.011045712,0.014593373,-0.027814103,0.0134563325,0.020600857,-0.04900386,-0.0034546487,-0.062501974,0.03194484,0.110390685,0.019364286,-0.04496647,-0.08542832,-0.06728429,-0.002977477,-0.0067942506,-0.10140928,-0.025685688,0.031733967,0.0075598937,0.012250193,0.0012960786,0.015334793,-0.07131051,-0.029158812,0.013694396,-0.008604612,0.056524318,-0.022372682,-0.03292973,-0.034550738,-0.027679518,0.03577755,-0.04147859,0.008866996,0.025006965,-0.015592418,-0.038988147,0.047035743,-0.021304332,0.037694816,0.037418526,-0.05744341,-0.12765783,-0.017580055,0.01114364,0.009877987,0.022224363,0.010610082,-0.075760715,0.036922473,0.020576281,0.079014115,0.02249952,-0.009561168,-0.012337271,0.03222601,-0.038222022,0.022528963,0.02642868,0.010821937,-0.073743,-0.064578906,0.04923825,-0.040964473,0.05634272,0.014435161,-0.009438838,-0.029400595,0.009921637,0.00641802,0.16434777,0.027231675,0.033621192,-0.0270531,0.016503662,-0.02108465,0.033510175,-0.00052493426,-0.03433383,-0.026960522,-0.0072570415,0.031967707,0.050016638,0.00081147585,-0.0087250555,0.068055235,-0.022461943,0.06960984,0.0143422065,-0.007557547,-0.038101397,-0.046455383,-0.031335432,0.017801696,0.01062357,0.08717275,-0.019837186,-0.029227313,0.05726792,0.10729085,-0.007731271,0.07114927,-0.033248514,-0.010062709,-0.03553812,-0.07763445,-0.11605594,0.05031394,0.0059713013,-0.09216609,-0.023660539,-0.0031122603,-0.11031099,0.036168322,-0.019069716,-0.01754317,-0.0929103,0.05169766,0.06854794
GCF_000009805,0.017155237,0.012690917,0.004971634,0.0018114094,0.0014782643,0.034587022,-0.025132308,-0.054953173,0.023598492,-0.019216184,-0.008284899,0.011079318,-0.0028778287,0.040091258,0.005575324,0.013447529,-0.012532859,0.0054969164,0.012252827,-0.00037897943,-0.022802165,-0.0010359176,0.035704013,0.041875686,-0.02696244,0.013851567,-0.017598921,0.0034166162,-0.007859396,0.008913994,-0.013462503,0.043575723,-0.11628834,0.0032104957,-0.11557105,0.021328846,-0.020615578,-0.019127954,-0.0065112757,-0.001832933,0.0024952136,-0.027070727,0.0012104134,-0.012091473,0.008583016,0.01542474,-0.02382754,-0.0057337717,-0.004420121,0.020777868,-0.010633596,-0.0071931416,-0.024932707,-0.009800349,0.039647557,-0.0045197182,0.004912138,-0.041218914,-0.03238605,0.012801605,-0.03802849,0.007290201,-0.031105962,-0.0038844321,-0.016515702,0.02738853,0.024153436,-0.020627322,-0.00324166,-0.03213997,-0.026742464,-0.00023638902,-0.15971215,0.012250528,-0.009201722,0.025243508,0.0092647895,0.0070695765,-0.0485072,0.0195104,-0.0019106633,-0.009746665,0.011945599,0.0043640216,-0.012795176,-0.023769438,0.011456923,-0.00028892286,-0.006901524,0.0032252315,-0.0021514785,0.0010524836,-0.009273324,0.005997546,-0.062210288,-0.02736757,0.010728559,0.012320746,-0.015313348,-0.008237145,-0.046002448,0.02317507,0.02062028,-0.016232101,0.009300252,0.039021883,0.022219826,0.008736289,-0.01358649,-0.068012856,0.010251916,-0.017101161,-0.036331654,0.006761249,0.013913137,0.016968796,0.0051834458,-0.018446648,0.00785822,-0.001048239,-0.0056357733,-0.031319644,0.01193226,-0.021427304,-0.024610357,-0.0099606095,-0.0215782,0.014582555,0.04063461,0.017952843,0.040072832,-0.0048468225,0.005787923,-0.014296154,-0.008673539,-0.039756183,0.0015127993,-0.005275713,-0.008727407,-0.0042709266,0.015942184,-0.022082794,-0.021208765,-0.011419902,0.008615138,-0.00039480324,0.016917516,-0.0036840008,0.016679045,0.003294103,-0.0037933523,-0.0137525005,-0.0041395673,-0.0022744432,0.009456056,-0.02163203,0.011620641,-0.01948019,-0.035319854,0.01892813,-0.0012616735,-0.006615448,-0.0027667687,-0.016482666,-0.035661668,0.02364347,-0.003793881,0.018945856,-0.011863023,0.01748302,0.022993065,-0.017432027,0.010682647,0.03846269,-0.0011396565,0.0045093126,-0.006233696,-0.0065210206,0.020956138,-0.013389672,0.009897007,-0.014515676,-0.00088784,0.0023791974,0.024410479,-0.03762595,0.021374403,0.012945166,-0.05843132,0.035606574,0.058307786,-0.0069719977,0.013437696,0.040626284,0.00564866,0.045246433,-0.029145217,0.013371506,-0.011583917,-0.023287766,-0.04831623,-0.023344625,-0.0034988723,-0.008474541,-0.01831065,0.017764047,0.06620174,0.00034095455,0.0069874153,0.0004558168,0.021762088,-0.03921467,-0.01181787,-0.014575806,0.008912594,0.014882097,-0.0014241111,-0.035222933,-0.011898664,0.011788674,0.01583972,-0.013288151,0.008468158,0.0014612372,0.002705853,0.0054054502,-0.0067881877,0.005151843,0.015273414,-0.01394263,0.014251592,-0.03181295,-0.011912062,0.027400335,0.0032084852,-0.043195616,-0.031853452,0.041579112,0.008200436,-0.012962323,0.006402011,0.0066223065,-0.018541435,-0.002189016,-0.044184323,0.034376457,0.0071074865,-0.0036405094,0.020224404,0.023189217,-0.0001716107,0.032156207,-0.014770146,0.034817964,0.020022774,-0.0029686245,0.048459545,-0.001732943,-0.0117068505,-0.013619781,0.01992404,-0.0065603536,0.006482275,0.010758194,-0.006737009,0.01927335,-0.03509572,0.0014638639,0.009491881,-0.021192335,0.008132262,-0.009474442,-0.0052746893,-0.10986892,0.008010164,-0.015202222,0.02474098,0.0044149677,0.0024173874,-0.1091357,-0.038251545,-0.03703641,-0.053016007,-0.01923944,-0.004003636,0.02579647,-0.0016097777,-0.009257216,0.017845556,-0.002547422,0.022183845,0.029621001,-0.020473074,0.0014931009,0.20693831,0.017510142,0.0041738492,-0.007875156,-0.0011810329,0.020260269,0.023144834,0.019709235,0.027410606,0.002681592,0.009736227,0.0133169005,-0.004132569,0.005438159,-0.008578565,0.010845982,-0.014204702,0.031106595,0.0105250925,0.005893717,-0.005148263,-0.010169274,0.022320673,0.0049549905,0.0046910513,-0.0147575885,0.00434927,0.009608231,0.010373124,0.029792698,-0.0135136265,-0.03701469,-0.063142456,0.0018402338,-0.024561957,-0.010510939,-0.020071803,-0.014361935,-0.023066167,-0.028992383,-0.043113,0.010490639,-0.02435774,0.017868586,-0.027738035,0.017765902,-0.021482414,0.0043589906,0.0036047024,0.006540046,0.020777004,0.042256918,-0.0035835444,0.023030236,-0.0025981467,0.011318962,-0.008234764,0.0023970038,-0.0019890661,0.013676665,0.030372065,-0.04903074,-0.07148951,0.012808234,0.026424577,0.020843623,-0.018461691,-0.0023180377,0.007884137,-0.0088616945,-0.017743055,-0.013567094,-0.045091826,0.019625388,0.029639542,-0.017031608,-0.014195825,-0.00051158364,-0.007067173,-0.006480411,-0.0054975897,0.0007168057,-0.0068564415,0.007561312,-0.0140345665,0.0051371143,-0.0055014915,0.0055811503,-0.036217906,-0.012648595,0.012779533,-0.0131574,-0.0011632101,-0.004340053,-0.029877717,-0.03969362,-0.00079250755,-0.007849877,-0.011281741,-0.026758509,-0.01443524,0.023282364,0.004773644,-0.003082698,-0.019809544,0.006820506,0.004552452,-0.0041461685,0.08073173,0.037541434,-0.051172283,-0.08596116,0.030825729,0.10724715,0.01768491,-0.0497019,-0.021130733,-0.023233462,-0.017310139,-0.007000161,-0.040627252,0.007023137,0.018533288,-0.0005792774,-0.023744615,-0.0021522613,-0.004646515,-0.003789874,0.021346826,-0.020207798,0.023975685,0.017419556,0.0030733142,0.026297575,-0.029188793,0.01081663,-0.08914884,0.019985102,0.01317943,0.005300007,-0.014822383,-0.033912074,0.01689927,0.113224514,-0.0077418117,-0.0125798695,0.0023402516,0.021842249,0.008718583,0.11464425,0.026813025,0.00011375069,-0.0021357362,0.0039456943,-0.02078176,0.0016646123,0.019070297,0.0032379816,0.014994125,0.016918547,0.025643338,-0.018995635,0.005025265,0.0017754886,0.013222995,0.01780428,-0.024633383,0.022215134,0.019461088,0.044675387,-0.012145673,-0.012452471,0.04450173,0.037356332,0.03878389,-0.015634427,-0.021219362,0.0040641776,0.005521485,-0.00046828875,-0.008919419,0.007862289,0.007017197,0.010222468,0.026783405,-0.014888088,-0.029211178,-0.016770132,-0.006247708,-0.02111242,0.0005526139,-0.039178003,-0.008167107,0.00084430963,-0.013159945,0.026022034,-0.030418098,0.04485846,0.0021184005,-0.0035575943,0.04443055,-0.0031278862,-0.0032631005,0.011434014,0.008210084,-0.01581482,-0.018291565,-0.027530167,-0.014913891,-0.08312955,-0.06693974,-0.0034070176,-0.00922428,-0.0325106,0.015873475,0.017015867,0.006621148,0.028328843,-0.0077427663,-0.0123267835,-0.0050860285,6.0520728e-05,0.004780289,0.006025913,0.007191383,-0.016405052,-0.04141864,0.059913058,-0.022210648,-0.009190641,-0.01577104,-0.057937138,-0.0065987976,-0.013138563,-0.00031321455,0.0034639265,0.019701667,-0.0039930795,0.02406931,0.014627482,0.011704218,-0.027511619,-0.035485037,-0.028035482,0.0022752807,0.050993614,0.0031222287,0.038836144,-0.028029162,-0.00083155575,-0.014566301,-0.01555848,0.011852955,-0.023545833,-0.00079450203,-0.028001623,-0.01781755,-0.005684356,-0.007594437,0.00047708268,0.006105812,-0.032801066,-0.062172133,0.0013626883,0.0012239632,0.017017694,-0.029287541,0.0018832303,0.031495847,0.010401417,-0.018856373,0.00699851,0.0045271437,-0.007947232,0.012475642,0.049260154,-0.0021385774,-0.033228625,0.01586123,-0.0040717246,0.028977053,0.0062516523,0.011838182,-0.038969763,-0.032303877,0.01462813,0.0068279915,-0.03578032,-0.0130955,-0.02602126,0.011726933,0.01523083,0.014537857,-0.041956455,0.0073302775,-0.020976298,-0.023294464,-0.03350239,0.0346337,-0.012879961,0.02379414,0.011095122,-0.007459424,0.010247349,0.004961632,0.022547558,0.00526084,0.014326495,-0.0224905,-0.0049707023,-0.03422132,-0.006835703,0.022939513,-0.022779344,-0.022510963,0.028427286,0.024382439,0.023508891,0.010682605,-0.01373011,0.025493931,0.13467748,-0.010080464,0.013389817,-0.0037568205,-0.00645009,-0.030469837,0.0048203175,0.00537486,0.00055264274,0.014624216,-0.03798391,0.020437548,0.002423136,-0.014918501,-0.023572372,0.053318933,-0.0028243065,-0.0031993387,-0.011868838,0.013582909,0.0011120737,0.01632992,0.011050616,-0.0055671334,0.016332982,-0.009643753,-0.018332778,0.038465735,0.022452593,-0.04244714,-0.00402992,-0.052538197,-0.011349629,-0.03653219,-0.0030552004,0.0045378944,0.01636829,-0.0051064948,0.0379245,-0.005091055,-0.012519452,0.044308085,0.015734743,-0.0056595188,-0.00088771957,-0.008159295,-0.0133487545,-0.008780187,-0.0040366673,0.011479018,-0.027943727,0.0032101145,-0.032837424,-0.008631771,0.039362423,-0.009381939,-0.03615853,0.034781177,0.013827681,0.009536915,-0.0076688905,-0.008322559,0.029275987,0.007879207,0.0068953414,0.016139954,-0.004997726,-0.029447922,0.07507688,0.035790294,0.011364378,0.020633074,0.019217752,-0.0013166409,0.014925568,-0.0019587167,0.006822559,-0.006854202,0.009327436,0.00496606,0.012187221,0.00632047,0.010293997,-0.04129145,0.014714976,0.04810811,0.010530153,-0.002833547,0.017385919,0.009718473,-0.004017697,-0.021584537,0.007262351,0.032801498,0.01295331,-0.01719072,-0.013297704,-0.00025494664,0.009928988,0.015132612,-0.0020495225,0.017940627,0.004782699,0.007479666,-0.0076174918,-0.036292594,-0.028848568,-0.0013131977,0.030705871,-0.0020981648,0.0024038148,0.005211132,-0.010996211,-0.024815336,-0.010838182,-0.015012702,-0.017099397,-0.01651473,-0.059921857,0.0093757445,-0.011690476,0.019478455,-0.01902315,0.013890095,0.036812626,0.012413624,0.00878644,0.034105133,-0.018210359,0.03880771,-0.011847998,-0.02795475,-0.029270854,-0.023918549,0.014652358,0.010953359,-0.005820137,-0.04408982,-0.06705083,0.015401607,0.021310937,0.02819793,0.0006701634,0.019905679,-0.02165231,0.0138780065,0.010714046,-0.00029127195,-0.007738629,0.0004030784,0.012065291,0.006803629,-0.029678361,-0.0009536358,0.037937302,-0.0020048725,-0.008975734,-0.00078380085,-0.01186964,0.020000948,-0.008595919,-0.024959987,0.0267369,0.021002939,-0.020070478,-0.0017973516,0.022952363,0.018305263,0.0038752167,0.03365023,0.011551748,-0.015155637,-8.2803876e-05,0.005443516,0.025742477,0.011360229,-0.001759321,-0.023237893,0.04083492,-0.017897112,-0.022930425,0.000616644,0.013240961,-0.013972434,-0.035326917,-0.0026704643,-0.014343068,0.032261305,0.018625151,-0.029706517,-0.02806074,-0.015592013,0.026216477,0.015483862,-0.0016482311,0.03125888,0.007404777,0.021177204,0.010222502,0.114963174,-0.016440997,0.023212483,-0.082094364,0.071115345,-0.017089795,-0.0023092572,0.004950797,0.019699046,-0.0014951216,-0.0051740445,0.024422495,0.040346015,-0.023715045,0.0060453312,0.018812656,-0.02707133,0.013179529,0.0070274984,-0.012443146,0.0012784521,-0.039855827,0.030640064,0.08767739,0.017175946,-0.012394226,0.0011056237,-0.043408535,0.00051636464,0.011416997,-0.03660489,0.008322237,-0.019557681,-0.014390578,0.003341647,-0.02251105,0.025398733,-0.04085944,0.0227394,-0.0039226897,-0.0029307222,0.011931903,-0.0022774814,-0.018302526,-0.005246797,-0.008312212,-0.015079434,0.009376036,0.018750751,-0.02317055,-0.010172349,-0.026871534,-0.016524017,0.034992673,-0.025760313,0.058125224,0.007592038,0.012875207,-0.030517269,0.042879686,0.012013286,-0.065016285,-0.013149556,-0.011786928,-0.03252869,-0.0405671,0.006679653,-0.021239731,-0.016962616,0.0029082163,-0.010524602,0.028861977,0.02965801,-0.00011048675,0.0025023478,-0.01950037,0.0076968814,-0.019796323,0.03293292,-0.03161514,0.009778063,0.031204468,0.023098191,0.00656306,0.10634109,0.040259924,0.0043336465,0.029839907,-0.06258748,0.014030169,-0.0335991,-0.014309176,0.0035275717,0.014220888,0.022938583,-0.028884422,-0.01305094,-0.026378032,-0.010371622,0.12508646,-0.022574699,0.01297928,-0.07575601,-0.021191234,0.023533942,0.0074602766,0.024524722,0.011675489,-0.029384777,0.010643998,-0.010756449,0.01830497,0.018577544,0.0026869667,-0.007565381,0.0006820814,0.010277735,-0.0077918023,-0.02194353,-0.014142506,0.0026940713,0.018151477,0.020730054,-0.025396876,0.014069396,0.0030605134,-0.012850277,0.022589145,0.020932911,-0.03512305,0.035816997,0.007097683,-0.020534532,-0.11553084,-0.025536943,0.011455136,0.032362863,0.010840616,-0.013123598,-0.09998181,0.013844526,-0.004614693,0.031160014,0.02959251,0.0069715846,0.00048757196,0.002565435,0.004188025,-0.0026292233,0.002356725,0.024284763,-0.045102,-0.034394775,-0.004185551,-0.0074635036,-0.004558344,0.050787516,0.015385904,-0.019638207,-0.011850713,0.0003145521,0.06477158,-0.014264976,0.0006633024,-0.022818064,-0.014847477,0.011902481,0.026552824,0.009086341,0.0030255541,-0.0152432155,-0.0017134693,-0.017327113,-0.0107722925,0.008137494,0.0035541393,0.019258525,-0.005171971,0.02754058,0.011901104,0.00016185101,0.003726176,-0.015900003,-0.047019053,-0.03232056,-0.011999072,0.02014934,0.017719839,0.010197636,0.0122034475,0.114139654,0.0051829834,0.015564877,0.033707194,-0.015717007,0.018028382,-0.046734393,-0.029209616,0.040836357,0.025258373,-0.017251868,-0.013288326,-0.006065705,-0.057135954,0.013686476,0.008114949,-0.020692877,-0.007039038,-0.012310551,4.6676178e-05
GCF_000011965,0.012733786,0.028025204,0.010537925,0.025711441,-0.0048504337,0.030199973,-0.023538617,-0.063582316,0.013100266,-0.008465734,-0.012971609,0.022795014,-0.0063674403,0.033920765,-0.004623971,0.0068106395,0.00080279296,0.006294512,0.011857249,0.015177682,-0.030610807,0.022089493,0.033579215,0.032315496,-0.020131998,0.0044533024,-0.022034943,-0.0059405086,-0.011153056,0.022406103,-0.026028346,0.041568097,-0.11878423,0.0065670223,-0.116993584,0.016979083,0.00058936776,0.0048642424,-0.010511766,-0.014390569,-0.008071944,-0.018890284,-0.020818824,-0.026168551,-0.0027609465,0.005083369,-0.028116763,-0.0035007424,-0.025518322,0.0017876443,-0.018062983,-0.0072536073,-0.028834084,-0.008974742,0.034097124,0.0032144,-0.008832548,-0.014187324,-0.024520813,-0.0021669068,-0.04598267,0.010815419,-0.019845268,0.008584241,-0.0064453133,0.024358554,0.020053769,-0.012890917,-0.0030609323,-0.02733257,-0.019489821,-0.008281827,-0.15678556,0.020578582,-0.01612472,0.026460186,0.016782584,-0.0026676937,-0.016441407,0.020429105,-0.0053812126,0.0021849852,0.0012750733,0.016564064,-0.024296677,-0.03650404,0.009859998,0.0050763786,-0.012439912,0.01284491,0.011232943,-0.0010417764,-0.017065743,0.0078992145,-0.066082664,-0.017471291,-0.005045582,0.006974219,-0.028591756,-0.0011458563,-0.024597751,0.030746331,0.0142974565,-0.013096786,0.027068583,0.025644278,0.024299111,-0.017405387,-0.011069862,-0.058320288,0.013694999,-0.013909279,-0.03431755,0.0025772266,0.0044547264,0.022928152,0.008719554,-0.00749141,0.0074539287,-0.021920145,-0.011199998,-0.029206336,0.016852431,-0.021570487,-0.010419704,-0.0012512758,-0.029694978,0.021000618,0.015927209,0.018406117,0.033861782,0.007635936,0.004507137,-0.00612989,-0.012940062,-0.030493861,0.017477514,-0.011246413,-0.01866243,-0.00084284716,0.014981872,-0.034392737,-0.0013125576,-0.0046314406,0.0053994604,-0.005907513,0.01925961,0.01866552,0.0082825795,0.019595897,0.015910191,-0.019134834,0.0020763918,-0.0026024194,0.011888028,-0.00072521134,0.0076455544,-0.0027409727,-0.03464563,0.004553059,0.0058935774,-0.009134249,-0.022252364,-0.018827682,-0.02840124,0.021038502,0.0136760175,0.013209167,-0.0027523206,0.02299337,0.007953341,-0.016083863,0.025488218,0.050835267,-0.0025728096,0.006638292,0.008850295,-0.00238905,0.014842303,-0.019816315,0.029196003,-0.023517258,0.0021905003,0.018620355,0.018427078,-0.017048843,0.017672498,0.013014781,-0.049845345,0.028288282,0.04595577,-0.009634985,0.008088496,0.029754804,0.0045632245,0.017034631,-0.036332686,0.022495572,-0.010470011,-0.014933408,-0.040815484,-0.021604612,-0.022369144,-0.0028693604,-0.0068445085,0.022629784,0.054319113,-0.009132647,0.0057585016,0.013753074,0.010060575,-0.032415986,-0.0043197945,-0.0033868495,0.003759522,0.023203366,0.02476271,-0.03279815,-0.0031947496,0.015370262,0.025144344,-0.0111912545,-0.010116708,0.018754032,0.028445175,0.00046312556,-0.016882371,0.005383058,0.008923636,0.003685997,0.000108001994,-0.029810222,0.001185926,0.006243684,0.0071011176,-0.040347386,-0.045067526,0.032014687,-0.011899879,0.0021869915,0.019041695,0.002339719,0.0020443045,-0.013120085,-0.033414673,0.030902447,0.0096193245,-0.0013365739,0.025949787,0.008825615,0.0017413321,0.02194799,-0.03352616,0.02742561,0.017278086,-0.001807911,0.04664938,-0.004805331,-0.0063752173,-0.01239401,0.0016067299,-0.005578488,0.0030440877,0.008194506,-0.0020865486,0.019323971,-0.048146505,0.02236362,0.001960814,-0.010575027,0.00028126175,0.00059305446,-0.0061044483,-0.11104187,-0.0075365882,-0.015985386,0.01727525,0.005319353,0.006618535,-0.09817432,-0.024028178,-0.044583328,-0.04700716,-0.006487272,-0.011182252,0.022933131,-0.010880743,0.007483923,0.011018249,0.0036079995,0.017986143,0.024553029,-0.0045306915,-0.016613156,0.20776504,0.012349434,0.002600983,-0.006301555,-0.00064001424,0.029403634,0.03302977,0.008549446,0.014286004,-0.017680198,-0.00946594,0.010603162,0.0004552205,0.010066772,-0.017040577,0.011139015,0.0026007416,0.0031502112,0.00841755,0.020080121,-0.0040070647,-0.01539635,0.022177184,-0.004960788,-0.025361944,-0.005535375,0.0015079479,0.003615191,0.00036317678,0.026908131,0.0029116813,-0.02994348,-0.039697118,0.007555878,-0.0063434606,-0.021516453,-0.020208983,0.0010208911,-0.013182875,-0.020533698,-0.043388262,0.013158803,-0.031425435,0.024106033,-0.025092242,-0.00663194,-0.02859903,0.015714929,-0.0005359793,0.012025616,0.016529374,0.02704066,-0.011191112,0.017140491,-0.0034337237,0.008408947,-0.012397944,0.020927915,-0.003217683,-0.0010586083,0.020699574,-0.04504457,-0.0631002,0.033865828,0.03252581,0.017296052,-0.007106535,0.0022506402,-0.008857251,-0.008998444,-0.022318644,-0.018609954,-0.050503876,0.022256862,0.037992608,-0.02118627,-0.02170541,-0.009871849,0.0015161857,-0.008929388,-0.002615029,-0.007828306,0.012206612,0.005493876,-0.0141851185,0.0042268774,0.0021343362,0.0146005135,-0.021231826,0.001537449,-0.013686786,-0.022331163,0.005102432,-0.005204323,-0.008395465,-0.025028046,-0.024858737,-0.01288812,-0.019203069,-0.011592294,0.0036382675,0.025456274,0.012656763,0.008562364,-0.02261217,0.024013925,-0.010983474,0.0024808252,0.07990955,0.020573849,-0.05767691,-0.088878155,0.013238951,0.075887695,0.014843363,-0.04825967,-0.0020434172,-0.02462469,-0.018585663,-0.021341488,-0.038125176,0.016794443,0.011958926,-0.009450996,-0.025874339,-0.008211784,0.0032420442,0.0011724591,0.028070778,-0.025966248,0.043061424,0.0029456601,-0.005124707,-0.0019782828,-0.03882079,-0.00865331,-0.070841596,0.01627957,0.0031098393,-0.01658567,-0.011943851,-0.033083145,0.01228978,0.109405056,-0.010357273,-0.0055881087,-0.0057936455,0.013374337,0.011397781,0.11814275,0.004940737,-0.0030194002,-0.0057353405,-0.011811011,-0.02476444,0.017397368,0.03711453,-0.008316868,0.0027797834,-0.0094602285,0.013492049,-0.03821257,0.0010345986,-0.02294155,0.0040981383,0.011172157,-0.008443815,0.0019314388,0.03194055,0.03726074,0.0119377915,-0.013870646,0.046096515,0.0312951,0.024766179,0.0012301222,-0.014688478,0.0039226376,0.023978751,0.007848641,-0.026040135,0.0031922203,-0.0031806713,0.0067713223,0.015993275,-0.02244253,-0.024458043,-0.0060039847,0.014357114,-0.026814716,0.005301717,-0.045246243,0.019710762,-0.009521628,-0.020531528,0.013560073,-0.025035897,0.042574383,0.0066881236,-0.0012178225,0.028403522,-0.015602011,0.0027156412,0.009629884,-0.0041750157,-0.0046373163,-0.035255328,-0.025560692,-0.012135672,-0.09841803,-0.06754458,-0.0012018773,0.013873238,-0.025843315,0.030150931,0.005952496,0.00449668,0.014442613,-0.01282406,-0.0073251454,-0.014781705,0.0066797556,-0.0044158255,0.0016906401,0.0057933168,-0.008574085,-0.037438516,0.05562678,-0.00914238,-0.01402832,-0.01799189,-0.06648683,-0.0058560427,-0.006261397,0.021117888,0.006188851,0.016312152,-0.011794237,-0.0029953248,0.0011430582,-0.0144558605,-0.03216657,-0.013988399,-0.008104087,0.011208409,0.03897309,0.0010721276,0.030109785,-0.022887731,0.007037141,-0.01708677,-0.04062306,0.009597019,-0.018376905,0.009051012,-0.03270299,-0.021391582,-0.00086334546,-0.010676539,-0.0006949434,-0.008416445,-0.033034217,-0.06190056,-0.007684242,0.012974091,0.014660538,-0.035177305,-0.0034200468,0.017154923,0.020406827,-0.009842048,0.007852656,0.0053880857,-8.119583e-05,0.028129071,0.04470216,0.0067695607,-0.0325706,0.0030700383,-0.0078793345,0.04054108,0.011806443,0.0060185273,-0.036861096,-0.03773083,0.035194214,0.017440185,-0.01409811,-0.0013266995,-0.030330008,0.0018436878,0.018509947,0.002536605,-0.040310662,-0.0018006165,-0.041764714,-0.022115167,-0.03657392,0.02281873,-0.017398896,0.012437672,0.013917036,-0.0049036853,0.023300238,-0.0026000275,0.01109634,-0.009991948,0.006776381,-0.018682694,-0.011732763,-0.01542787,-0.00063532015,0.013320023,0.005261174,-0.022828907,0.039105304,0.009138407,0.009400748,-9.216787e-06,-0.020339105,0.022591237,0.13706294,-0.017412037,-0.0051783435,0.0065040807,-0.021413634,-0.030159676,0.018877458,-0.010766981,0.0026381908,0.04095118,-0.034343682,0.01665022,0.0021521852,-0.024245441,-0.021390151,0.035256676,-0.006184843,-0.006263501,-0.0141107505,0.0051422133,-0.01062328,0.0144604575,0.0003107643,-0.010585923,0.039400954,-0.009567614,-0.02717788,0.033161458,0.017919848,-0.03878215,-0.0049353363,-0.04852678,-0.011046929,-0.03374319,0.018687926,-0.0043401383,0.0013332074,-0.009908981,0.05522683,-0.020244032,-0.021620754,0.038955048,0.025071077,-0.012456359,-0.0005958699,-0.004172958,-0.026275314,-0.004231835,-0.010868484,0.010878545,-9.355511e-05,0.014304621,-0.030058736,-0.012197656,0.03147369,0.017514113,-0.0152354725,0.026333632,0.0043623256,0.01571949,-0.02207235,-0.016374376,0.02767136,0.0071087005,0.003303222,0.014956215,-0.004863168,-0.02885951,0.07344886,0.028344149,0.014339481,0.009029887,0.01964058,0.0102022225,0.00072276324,0.0009509551,0.0052783005,-0.014165792,0.011116995,0.0056678643,-0.0024717886,0.01983363,0.020085203,-0.045429684,-0.003994968,0.043730572,0.029390484,-0.009170434,0.023143811,0.02345084,-0.0048268167,-0.04244061,0.02133912,0.028946387,0.017039984,-0.024170717,-0.017431015,-0.006146245,-0.0027262974,0.0138712125,-0.003475553,0.022801869,5.042347e-05,0.004574893,-0.008805962,-0.03435182,-0.020670107,-0.010929114,0.033238836,-0.011384407,-0.010123927,0.009564999,-0.00033584706,-0.04001526,0.005717789,-0.022143137,-0.024021298,-0.033566266,-0.053532194,-0.0018245904,-0.015133013,0.012291097,-0.027543178,-0.0028761444,0.032141358,0.017902287,0.0073214173,0.026915006,-0.020186557,0.030207003,-0.033945404,-0.007354304,-0.030757977,-0.013993835,-0.018910082,-0.010547245,0.02334411,-0.037052874,-0.05141376,0.0364892,0.019051673,0.030783014,0.0031023233,0.01367209,-0.014643305,0.009429674,0.009608562,0.018816078,0.011205072,0.009757335,-0.003856449,0.02516348,-0.037183356,0.00023869603,0.011785267,-0.017753823,-0.009953679,-0.006744966,0.011999342,0.0368414,0.0017141626,-0.032809168,0.017542649,-0.0059524104,-0.027811574,0.0029897236,0.0015348516,0.026186425,-0.021121524,0.03144877,0.01275211,-0.008265003,0.009056164,-0.002075794,0.02171414,0.011550171,-0.0023726404,-0.024876999,0.03994973,-0.025669072,-0.030186549,-0.014775725,0.0045962078,-0.0057442696,-0.017390547,-0.01368355,-0.015736643,0.017788785,0.02416662,-0.016243553,-0.034058955,-0.015935257,0.029142894,0.0029637741,-0.000159102,0.024008194,0.012479943,0.016693696,0.026396362,0.11494686,-0.0015141264,-0.0033414455,-0.075978436,0.06985659,-0.011887113,-0.0009832493,0.00441192,0.02823064,-0.000633368,0.0033352461,0.014223515,0.028670013,-0.013230846,0.009861223,0.02346421,-0.020752555,0.019117268,0.028168548,-0.01482777,-0.013555927,-0.037380293,0.020028984,0.09544069,0.0017633329,-0.025114067,0.0051910435,-0.04979569,0.0067760963,0.012182349,-0.02824348,0.0058272704,-0.012320386,0.00014244036,-0.0026621094,-0.019855147,0.023612114,-0.032909892,0.0277509,0.010462656,-0.00021025876,0.008452998,-0.02159643,-0.020877428,0.012818223,-0.004323292,-0.014003613,0.016109746,0.012526112,-0.02617083,-0.015905542,-0.018120943,-0.010747349,0.0343911,-0.008553086,0.046137106,0.02757128,0.015071734,-0.021999491,0.02525842,0.004382655,-0.050314404,-0.009708448,-0.008333373,-0.030307256,-0.035050355,0.006841226,-0.034352697,-0.02543682,0.016928252,0.0027212019,0.006850607,0.014753172,-0.0025814353,0.0019032918,0.008581692,0.008796541,-0.009725565,0.026973978,-0.027456747,0.00089119363,0.024072504,0.009948843,0.015446032,0.10615392,0.038742047,-0.0024967478,0.035574276,-0.06641125,0.00503564,-0.03462115,-0.009236616,-0.0067126066,0.02503199,0.02803961,-0.018795174,-0.019088805,-0.026324816,-0.0054573286,0.12622188,-0.021933382,0.02983218,-0.05053413,-0.0084130345,0.016102605,0.0070717237,0.019126432,0.0033108182,-0.02485029,0.015532965,-0.012268836,0.01417659,0.029132592,-0.011897914,-0.00032505125,0.006118946,0.015668383,0.013600689,-0.013429572,-0.004218277,0.014996876,0.0071969363,0.01652165,-0.024459362,0.042768605,0.015342658,-0.008163604,0.01066917,0.025274733,-0.040514,0.024130793,0.00044977013,-0.02855667,-0.11275988,-0.02857417,0.020246178,0.020390242,-0.01502997,0.00041330326,-0.08433916,0.030146305,-0.0021143511,0.02656142,0.030199321,0.0061944453,-0.0016684828,0.0138178365,0.0053906124,-0.0017498146,-0.0047190753,0.013133,-0.03281906,-0.036120307,0.009373154,-0.011971721,-0.0062881354,0.046184115,-0.006094806,-0.006808179,-0.009863986,0.003386011,0.078314066,-0.021098254,0.0067998613,-0.0056025884,-0.021235237,0.002599335,0.026847351,0.023675382,0.0027981647,0.0022374704,0.0110215815,-0.005035402,0.014535292,0.010465856,0.009105861,0.025980085,-0.01046048,0.04402051,-0.003993714,0.004027737,-0.013543694,-0.033208225,-0.030931784,-0.020944603,0.00082267355,0.033299282,0.019875057,-0.0050447257,0.010600642,0.11657704,0.009546476,0.034830548,0.038278747,-0.00945557,0.010905416,-0.04752341,-0.036940493,0.025676528,0.030373339,-0.006727016,-0.022703186,0.008764537,-0.062832154,0.019803965,0.015376323,-0.022245489,-0.008377396,0.00591777,0.025829768
GCF_000006645,0.029991016,0.05762167,0.0044994485,0.022543343,0.0052329465,0.027010052,-0.015759945,-0.055157777,0.023464859,-0.012106818,-0.016109925,0.021106508,-0.020163262,0.04127032,-0.005359638,0.019228512,0.0076080146,0.019130915,-0.0018349495,-0.01102578,-0.019000458,-0.0007275022,0.04523189,0.022009745,-0.017792115,-0.0076536094,-0.02271003,-0.025404232,0.0142875435,0.009059323,-0.014095239,0.05119787,-0.11619822,0.0043754866,-0.11757242,0.02363343,0.002246439,0.0006450685,2.7957936e-05,-0.0054267095,-0.00836345,-0.014569456,-0.0176087,-0.00823393,-0.014457697,0.018890034,-0.025686286,-0.005852286,-0.02285716,0.020516815,-0.025542272,0.010197412,-0.041330293,-0.030299343,0.020755485,-0.015227354,-0.0039650514,-0.026407955,-0.024397902,0.003455009,-0.031163638,0.009994435,-0.010406319,0.0049557104,-0.008545828,0.028357435,-8.668593e-05,0.008459187,-0.011729612,-0.013794979,-0.027905371,0.0030058464,-0.14425515,0.006649281,0.0016628004,0.016422141,0.017694104,0.0005107397,-0.02133925,0.031885717,-0.024483241,0.013781688,0.007310361,0.003666973,-0.017273957,-0.023588242,0.017524296,-0.0030032152,-0.013532406,0.016296573,-0.0031740945,0.010059477,-0.026505573,0.009543264,-0.05380333,-0.03195831,0.002396781,0.019125175,-0.018077495,-0.021256957,-0.03333269,0.032038737,0.022606058,-0.015631393,0.021430679,0.019201878,0.02378839,-0.0043802843,-0.018253261,-0.06387224,0.006456827,-0.01153181,-0.031734236,0.008302379,0.011407541,0.004356444,-0.0016298217,-0.023609787,0.017904622,-0.026140725,0.009965906,-0.020608017,0.023629855,-0.00412696,-0.030812545,0.0063930647,-0.02626847,0.00031008595,0.023678482,0.015654108,0.03482511,0.0022119973,0.0024533272,-0.024438934,0.020540899,-0.018156825,0.024255754,0.012372568,-0.006379701,-0.006828338,0.008151651,-0.042583507,-0.0068060276,-0.007089451,0.002943107,-0.013486688,0.016615417,0.00349798,-0.035739798,0.010190699,0.018285867,-0.01991607,0.012450385,0.0031137588,0.01070501,-0.010399446,0.010587938,-0.017106455,-0.019268,-0.0027890396,0.0026289653,-0.005125993,-0.027823271,-0.04207077,-0.019749325,0.026051547,0.0037697905,-0.009303085,0.014765615,0.024037272,0.0050637275,-0.024686871,0.040045023,0.051378917,0.006646328,-0.008202704,-0.0011516263,-0.012094714,0.013149273,-0.016165728,0.016500207,-0.011313915,-0.0073408275,0.0034435203,0.0075482447,-0.012422916,0.019252032,-0.004211979,-0.047110505,0.010354483,0.061812725,0.002754223,0.021663351,0.04084142,0.011731726,0.026167527,-0.025990821,0.016622178,0.025534146,0.0011641908,-0.059323683,0.0076197954,-0.029099407,-0.027853139,-0.0002199613,0.038084984,0.048911035,0.022000544,-0.016346198,0.011707787,0.0035776414,-0.023938797,-0.010073589,-0.0070536546,0.013262284,-0.0038787036,0.023463747,-0.031606477,0.009634125,0.0013869486,0.012439432,-0.02630781,0.0060421876,0.010054153,0.023236204,0.015921898,-0.014504894,0.019052397,0.018537909,-0.005985791,0.0145050865,-0.010087526,-0.007005088,0.012494202,0.006386047,-0.007867945,-0.021860672,0.0075069023,0.0037701076,0.013520004,0.009159145,-0.00020759994,0.008844896,-0.02596993,-0.03419777,0.021460172,0.0018355311,-0.011255673,0.015673757,-0.013231501,0.012953467,0.018319417,-0.020067755,0.02207114,0.003064432,0.01549799,0.05002893,0.0107858535,-0.008910249,-0.009103486,0.0072653703,-0.0076351482,0.00022316883,-0.009744553,-0.003775626,0.0076038097,-0.029585429,-0.0023525397,0.0065948735,-0.012997395,0.008151201,-0.009156356,-0.0064944797,-0.11340074,-0.0024374896,-0.008462828,0.025684288,-0.014252279,-0.001924974,-0.09828776,-0.019799758,0.0030825092,-0.03277072,-0.021543514,-0.016874274,0.022008765,-0.013969813,0.008663133,0.0133018335,0.005879373,0.015945906,0.033560116,-0.003455663,-0.01992295,0.20472361,0.012265868,0.007982638,-0.0055109994,0.01650108,0.020765511,-0.00057780417,-0.0011802185,-0.0038462637,0.0013495431,-0.02473445,0.017162055,0.010595381,0.002547721,-0.019473894,0.039641943,-7.839817e-05,0.010966308,-0.025293384,0.0150015205,-0.012002239,-0.019327896,0.0016361042,0.0050051454,-0.02066204,-0.010304216,0.021901295,0.006227912,1.9396346e-06,0.03383596,0.014317591,-0.015963454,-0.024290634,0.010110235,-0.005293819,-0.016168227,-0.022701006,-0.014623632,-0.0029562057,-0.00923172,-0.04411595,0.012780921,-0.03393832,0.021787671,-0.02253385,-0.020032544,-0.03447736,0.011936915,0.0045251097,0.025768526,0.014371076,0.023508813,-0.005834214,0.005521157,0.001011884,0.0130831525,-0.014019177,0.010622482,0.011301223,0.002060635,0.01908738,-0.04433811,-0.047254007,0.04228879,0.016358651,0.00047022072,-0.0054310123,-0.0034411289,-0.0025733844,-0.004464052,-0.017401014,0.015274779,-0.07340778,0.049743854,0.035171475,-0.021875903,-0.030148845,-0.033237934,-0.011503292,-0.035728842,0.0033108937,0.0055593005,0.010590195,0.013541505,-0.0011106032,0.019638482,-0.01992777,0.00590686,-0.012284869,0.0005769361,-0.007406896,-0.0039835963,0.009281569,0.0113366395,-0.008046173,-0.017554395,-0.014800974,-0.010241492,-0.0063909367,-0.028583907,0.0072215083,0.037175335,0.0029606498,0.021993551,-0.00881014,-0.024515988,0.012843201,-0.013415685,0.095002234,0.027522115,-0.07315024,-0.08940041,0.006982848,0.053957846,0.0025012721,-0.057739645,0.0030729594,-0.013105727,-0.017500563,-0.0055331993,-0.0434046,0.0037672508,0.015114133,-0.00542887,-0.0267606,-0.0228794,0.021514133,0.002422035,0.017015822,-0.01855728,0.039971586,-0.0029124604,-0.0047040065,0.0029751537,-0.012939089,-0.021212298,-0.048582092,0.0036987998,-0.031436812,-0.01675896,-0.04607991,-0.017084474,-0.026503498,0.09450609,-0.019254927,0.0034097848,-0.0034872673,-0.009642988,0.0017783091,0.11964291,0.016804101,-0.011461332,-0.015153833,-0.020668587,-0.011542187,-0.007625001,0.027574668,-0.012879728,0.00033467828,-0.008015111,-0.0010205525,-0.026782721,-0.019248532,-0.024563082,0.0058121486,0.029371891,-0.00840374,0.0005576293,0.022121087,0.021058949,-0.016940247,-0.026715675,0.037341204,0.025407162,0.039389487,-0.011659624,-0.004908144,-0.018598497,0.033652343,0.0070362776,-0.013268319,-0.00046677378,-0.0086160535,0.015077802,0.020086855,-0.010386316,-0.041031357,-0.0055878297,0.014740827,-0.02985217,-0.0014622092,-0.041762225,0.024783948,-0.015130283,-0.042325344,0.023817949,-0.021910118,0.045181397,0.00429342,-0.0069323494,0.022129,0.007214693,0.0007740941,0.034056947,-0.02172953,-0.0097427135,-0.030037694,-0.02188243,0.007531581,-0.10056581,-0.06077444,-0.005949839,0.009431242,-0.0069690035,0.027148902,0.0042165183,0.025603486,0.042602453,0.014050864,-0.007175302,0.0063088746,0.0037372287,0.020005831,0.006976322,0.0010360072,-0.014281766,-0.026307536,0.0825612,-0.00984609,-0.0018652161,-0.022906577,-0.05143896,0.006834823,-0.0032447693,0.007031945,-0.009265393,0.0130456025,-0.0005372418,0.012447384,0.009475939,-0.0064733494,-0.028825799,-0.024614764,-0.022501014,0.013956813,0.042397484,-0.0109040355,0.006696735,-0.02739361,-0.0028665224,-0.0041877134,-0.016896594,0.021382522,0.0013103524,0.007389874,-0.01525746,-0.041323267,-0.019688986,-0.0018919186,0.033259276,-0.025398592,-0.02573531,-0.046496797,0.0022988834,0.025900971,0.0015393741,-0.040750653,-0.0007885434,0.02729869,0.00041473145,-0.00047495667,0.019717215,0.002661736,0.0042307293,0.022469131,0.023460198,0.009091964,-0.019225689,-0.009902359,-0.0021670067,0.020044262,0.0014361381,-0.012798802,-0.034077886,-0.023621326,0.024418453,0.013579818,-0.0063521727,-0.0127831325,-0.031418253,-0.0021686319,0.03756905,-0.0115993265,-0.029988572,0.014754683,-0.04449136,-0.030535406,-0.038848408,0.023427192,-0.005982595,0.01112819,0.016694035,-0.017798454,0.03071617,-0.01554269,0.0007892155,-0.016908515,-0.0052728644,-0.03030211,0.0154626835,-0.0118572805,-0.0009083111,0.035607,0.012989667,-0.03178157,0.018026529,0.0010880636,0.018896433,-0.012014209,-0.02038461,0.056095872,0.13675168,-0.029822798,0.015594594,-0.001550829,0.0003645463,-0.03131193,0.0039474214,-0.022424435,-0.0062776515,0.029236333,-0.042875744,0.0010981088,-0.0053560613,-0.005525848,-0.022580516,0.056783363,-0.022686465,-0.011458923,0.0026190686,0.010375306,-0.0010065734,0.00023833358,-0.012173065,-0.01212827,0.032173038,-0.015353572,-0.014870777,-0.00068130455,0.018189378,-0.022916155,-0.0041885884,-0.059122887,-0.013442109,-0.046833932,0.022860987,-0.007312222,-0.012906068,-0.011571648,0.04028661,-0.01678279,-0.028579958,0.044980485,0.03995039,-6.577e-05,-0.010305642,0.016337136,-0.017224053,-0.0048591862,-0.014862969,0.032179072,0.001311766,-0.00807647,-0.02738303,-0.01386211,0.021093342,0.020560358,-0.015054197,0.025622956,-0.0062153935,0.03676256,-0.043006852,-0.019233609,0.036584,-0.02147959,-0.002221245,0.016295636,-0.00694158,-0.04437376,0.0720156,0.013348254,0.0045718285,0.013896572,0.035204157,0.013395849,0.013988742,-0.008354458,0.006583383,-0.0103792045,-0.005731863,-0.01556878,0.0074489173,0.0032031154,0.020448487,-0.043766182,0.010338758,0.036509044,0.032416545,-0.004363619,0.026374405,0.006698342,-0.0067693074,-0.015438855,0.025563892,0.049185526,0.008838458,-0.031428635,-0.013810332,-0.0036389253,0.015035554,0.0018496566,0.007153106,0.016686348,-0.0004206406,0.009575737,-0.008521231,-0.03943582,-0.03844105,-0.0029976224,0.037003323,0.014597732,-0.013253042,0.017355615,-0.008275409,-0.04101316,0.014099195,-0.022468954,-0.029869633,-0.034041353,-0.02620926,-0.00444086,-0.008326939,0.0026069586,-0.028721496,0.007430469,0.038609594,-0.0031701445,-0.007049511,0.020659652,-0.011118506,0.022920797,-0.013511712,-0.019813985,-0.033010315,-0.0029025616,0.0009791503,-0.027118634,0.046415377,-0.01759513,-0.064886846,0.032647703,0.015129162,0.047733422,-0.007228897,0.0118049625,-0.013635326,0.016957795,-0.01292492,-0.01643952,0.023697816,0.028519865,0.019207837,0.0068102274,-0.028027453,-0.0062598507,0.037690867,-0.014751108,0.0031096668,-0.008041506,0.003960167,0.017485607,0.01690879,-0.02282508,0.026335921,0.006405848,0.0067683207,-0.00519347,0.0087260725,0.01038295,-0.021896766,0.026125384,0.021163747,-0.024310801,-0.0012887826,-0.0072259,0.027764818,0.021434193,-4.19223e-05,-0.055998854,0.035292793,-0.025496956,-0.025794378,-0.027795985,0.021120531,-0.00749389,0.0016573003,-0.0062128813,-0.014168938,0.0015376655,0.044122912,-0.019362839,-0.037757266,-0.01619852,0.020922936,0.0028668283,0.010942767,0.019239739,0.0042057894,0.005344797,0.03265574,0.11836335,-0.011971116,0.011518888,-0.065256916,0.0556752,-0.029100502,-0.015096675,-0.0011715575,0.030977152,-0.0038615647,0.021738293,0.012258845,0.037521567,-0.0021302926,0.009382124,0.004312823,-0.008915166,0.00818378,0.024778003,-0.018472003,-0.020970952,-0.031132141,0.04015285,0.09534237,-0.009909922,-0.01935065,-0.00073052436,-0.05354138,-0.005170899,0.010101789,-0.0070447046,0.022156302,-0.025406502,-0.01038377,0.020303138,-0.0064457813,0.02477584,-0.034830913,0.025385045,0.011779116,0.0022079367,0.007811708,-0.020161195,0.012911796,0.02002219,-0.015044648,-0.030182716,0.020958852,0.0035587745,-0.013714597,-0.019459765,-0.013184076,-0.01556856,0.039247308,-0.0075933714,0.017304193,0.033975907,-0.00091940037,-0.01126009,0.04140317,0.0077754017,-0.060704563,0.0022543927,0.00039413644,-0.02842579,-0.024595648,0.001615305,-0.038230024,-0.0033729628,0.01062102,0.01685766,0.005314402,-0.00698151,0.014408099,-0.0013168323,-0.0041799634,-0.0017349609,-0.0044271275,0.015260035,-0.037943833,0.0053880513,3.204314e-07,0.006027261,0.016685495,0.10957382,0.024634138,-0.023400402,0.047631156,-0.06457215,0.007875036,-0.03030592,-0.015800389,-0.00793074,0.014715985,0.025403468,-0.008422896,-0.010964758,-0.046448667,-0.0072755856,0.120443076,-0.008423708,0.025416093,-0.05487659,-0.04459785,0.016557839,0.004700465,0.012715028,-0.008524599,-0.0066266176,-0.002865226,-0.015136196,0.0038007507,0.011094034,-0.01770684,-0.0017204664,0.0144757405,0.01248657,0.0056635365,-0.014435831,0.0028194226,0.0022162695,0.009905591,0.015277989,-0.03156672,0.025031311,0.015570883,-0.015759883,-0.0015089816,0.016237514,-0.02777484,0.011355951,0.0046324898,-0.024838436,-0.11275491,-0.011984059,0.032516923,-0.0057276017,-0.00030048107,0.013736167,-0.093359336,0.00887837,0.00401579,0.025291739,0.04777414,-0.008573204,0.002927157,0.008542866,0.015828481,0.011039256,-0.0013966582,0.009325566,-0.05572484,-0.013335025,0.013588497,-0.0045818165,0.013456552,0.04460886,-0.0005137232,0.0020320306,-0.010880889,-0.006992847,0.07945223,-0.005875832,0.009038761,-0.026359398,-0.0148659,-0.0053169634,0.05424871,0.0037244374,0.000634119,0.011043382,-0.011001239,-0.03892587,0.0063305553,0.010344013,-0.013261671,0.0043497398,-0.014815178,0.048304528,0.002793676,0.011317136,-0.020167498,-0.011358373,-0.039003033,0.0066426517,0.009806883,0.040457666,0.0022902917,-0.01187573,0.006436595,0.120449066,0.007338402,0.04813123,0.01495722,-0.021283148,-0.0037055423,-0.052261624,-0.018905591,0.026653878,0.014065423,-0.014819883,-0.006182497,0.0048788376,-0.072774366,0.034398545,-0.01378769,-0.038320277,-0.025368076,0.0019821208,0.02531776
